{"learner":{"attributes":{"scikit_learn":"{\"_estimator_type\": \"classifier\"}"},"feature_names":[],"feature_types":[],"gradient_booster":{"model":{"gbtree_model_param":{"num_parallel_tree":"1","num_trees":"100"},"iteration_indptr":[0,1,2,3,4,5,6,7,8,9,10,11,12,13,14,15,16,17,18,19,20,21,22,23,24,25,26,27,28,29,30,31,32,33,34,35,36,37,38,39,40,41,42,43,44,45,46,47,48,49,50,51,52,53,54,55,56,57,58,59,60,61,62,63,64,65,66,67,68,69,70,71,72,73,74,75,76,77,78,79,80,81,82,83,84,85,86,87,88,89,90,91,92,93,94,95,96,97,98,99,100],"tree_info":[0,0,0,0,0,0,0,0,0,0,0,0,0,0,0,0,0,0,0,0,0,0,0,0,0,0,0,0,0,0,0,0,0,0,0,0,0,0,0,0,0,0,0,0,0,0,0,0,0,0,0,0,0,0,0,0,0,0,0,0,0,0,0,0,0,0,0,0,0,0,0,0,0,0,0,0,0,0,0,0,0,0,0,0,0,0,0,0,0,0,0,0,0,0,0,0,0,0,0,0],"trees":[{"base_weights":[-1.1450942E-7,6.442107E-1,-1.6813172E0,1.3565602E0,-2.5223258E-1,1.0503836E-1,-2.255002E0,1.3946943E-1,2.7368167E-2,-2.0903585E0,7.667592E-1,-2.698072E0,8.7580316E-2,-2.632411E-1,-1.802863E-2,1.1039559E0,-1.6527534E-1,-2.079271E-2,-2.912161E-1,-6.895359E-2,1.3308261E-1],"categories":[],"categories_nodes":[],"categories_segments":[],"categories_sizes":[],"default_left":[0,0,0,1,1,0,1,0,0,1,1,0,0,0,0,0,0,0,0,0,0],"id":0,"left_children":[1,3,5,7,9,-1,11,-1,-1,13,15,17,-1,-1,-1,19,-1,-1,-1,-1,-1],"loss_changes":[6.535506E1,2.8199892E1,2.8563389E1,6.2856674E-1,3.9362183E1,0E0,2.196608E1,0E0,0E0,7.2473793E0,1.3002723E1,6.124939E0,0E0,0E0,0E0,6.054574E0,0E0,0E0,0E0,0E0,0E0],"parents":[2147483647,0,0,1,1,2,2,3,3,4,4,6,6,9,9,10,10,11,11,15,15],"right_children":[2,4,6,8,10,-1,12,-1,-1,14,16,18,-1,-1,-1,20,-1,-1,-1,-1,-1],"split_conditions":[3.8637006E-1,4.3179584E-1,1.5131174E-1,2.241628E-1,7.055343E-2,1.0503836E-1,2.1468772E-1,1.3946943E-1,2.7368167E-2,1.2155582E-1,1.1285431E-1,2.382703E-1,8.7580316E-2,-2.632411E-1,-1.802863E-2,2.0937051E-1,-1.6527534E-1,-2.079271E-2,-2.912161E-1,-6.895359E-2,1.3308261E-1],"split_indices":[394,256,124,219,304,0,27,0,0,27,493,111,0,0,0,286,0,0,0,0,0],"split_type":[0,0,0,0,0,0,0,0,0,0,0,0,0,0,0,0,0,0,0,0,0],"sum_hessian":[5.833948E1,4.262442E1,1.5715063E1,2.3464958E1,1.915946E1,2.5832982E0,1.3131765E1,2.2388584E1,1.0763742E0,6.4582453E0,1.2701216E1,1.1624842E1,1.5069239E0,4.7360463E0,1.7221987E0,1.1624842E1,1.0763742E0,1.0763742E0,1.0548468E1,1.0763742E0,1.0548468E1],"tree_param":{"num_deleted":"0","num_feature":"556","num_nodes":"21","size_leaf_vector":"1"}},{"base_weights":[1.2943859E-4,5.9642476E-1,-1.4383088E0,1.2964648E0,-2.4156173E-1,1.0056442E-1,-1.9066848E0,1.336373E-1,2.1977967E-2,-1.8095629E0,7.095741E-1,-2.26214E0,8.4107034E-2,-2.245332E-1,-1.6813291E-2,1.0446812E0,-1.5195237E-1,-2.442195E-1,-1.3510655E-2,1.2767382E-1,-6.968012E-2],"categories":[],"categories_nodes":[],"categories_segments":[],"categories_sizes":[],"default_left":[0,0,0,1,1,0,1,0,0,1,1,1,0,0,0,0,0,0,0,0,0],"id":1,"left_children":[1,3,5,7,9,-1,11,-1,-1,13,15,17,-1,-1,-1,19,-1,-1,-1,-1,-1],"loss_changes":[5.1386528E1,2.5158154E1,2.201479E1,7.045555E-1,3.129043E1,0E0,1.663007E1,0E0,0E0,5.2576485E0,1.1478754E1,4.887253E0,0E0,0E0,0E0,5.7810316E0,0E0,0E0,0E0,0E0,0E0],"parents":[2147483647,0,0,1,1,2,2,3,3,4,4,6,6,9,9,10,10,11,11,15,15],"right_children":[2,4,6,8,10,-1,12,-1,-1,14,16,18,-1,-1,-1,20,-1,-1,-1,-1,-1],"split_conditions":[3.8637006E-1,4.3179584E-1,1.5131174E-1,1.7024256E-1,7.055343E-2,1.0056442E-1,2.1468772E-1,1.336373E-1,2.1977967E-2,1.2155582E-1,1.1285431E-1,3.64229E-1,8.4107034E-2,-2.245332E-1,-1.6813291E-2,1.621735E-1,-1.5195237E-1,-2.442195E-1,-1.3510655E-2,1.2767382E-1,-6.968012E-2],"split_indices":[394,256,124,382,304,0,27,0,0,27,493,191,0,0,0,304,0,0,0,0,0],"split_type":[0,0,0,0,0,0,0,0,0,0,0,0,0,0,0,0,0,0,0,0,0],"sum_hessian":[5.7909504E1,4.135247E1,1.6557034E1,2.2232603E1,1.9119867E1,2.478308E0,1.4078726E1,2.120542E1,1.0271838E0,6.878214E0,1.2241653E1,1.2622575E1,1.4561511E0,5.1445265E0,1.7336876E0,1.1103738E1,1.1379156E0,1.1500851E1,1.1217237E0,1.0033602E1,1.0701357E0],"tree_param":{"num_deleted":"0","num_feature":"556","num_nodes":"21","size_leaf_vector":"1"}},{"base_weights":[-2.4441088E-4,5.558453E-1,-1.2663087E0,1.2447698E0,-2.3341393E-1,9.651188E-2,-1.6681685E0,1.2850349E-1,2.096851E-2,-1.605078E0,6.5876937E-1,-1.9709272E0,8.090018E-2,-2.2393558E-2,-2.0397846E-1,9.9172467E-1,-1.4062469E-1,-2.1203665E-1,-1.276661E-2,1.22615986E-1,-6.517504E-2],"categories":[],"categories_nodes":[],"categories_segments":[],"categories_sizes":[],"default_left":[0,0,0,1,1,0,1,0,0,0,1,1,0,0,0,0,0,0,0,0,0],"id":2,"left_children":[1,3,5,7,9,-1,11,-1,-1,13,15,17,-1,-1,-1,19,-1,-1,-1,-1,-1],"loss_changes":[4.1392567E1,2.2502506E1,1.7699293E1,6.461868E-1,2.5387094E1,0E0,1.3272301E1,0E0,0E0,4.4220333E0,1.0164281E1,3.6313972E0,0E0,0E0,0E0,5.2570324E0,0E0,0E0,0E0,0E0,0E0],"parents":[2147483647,0,0,1,1,2,2,3,3,4,4,6,6,9,9,10,10,11,11,15,15],"right_children":[2,4,6,8,10,-1,12,-1,-1,14,16,18,-1,-1,-1,20,-1,-1,-1,-1,-1],"split_conditions":[3.8637006E-1,4.3179584E-1,1.5131174E-1,1.7024256E-1,7.055343E-2,9.651188E-2,2.1468772E-1,1.2850349E-1,2.096851E-2,1.9154277E-1,1.1285431E-1,3.64229E-1,8.090018E-2,-2.2393558E-2,-2.0397846E-1,1.621735E-1,-1.4062469E-1,-2.1203665E-1,-1.276661E-2,1.22615986E-1,-6.517504E-2],"split_indices":[394,256,124,382,304,0,27,0,0,56,493,191,0,0,0,304,0,0,0,0,0],"split_type":[0,0,0,0,0,0,0,0,0,0,0,0,0,0,0,0,0,0,0,0,0],"sum_hessian":[5.6792717E1,3.9850334E1,1.694238E1,2.0969475E1,1.8880861E1,2.3716378E0,1.4570744E1,1.9951862E1,1.0176129E0,7.126052E0,1.1754808E1,1.3165968E1,1.4047756E0,2.0686657E0,5.0573864E0,1.0570251E1,1.1845572E0,1.2039548E1,1.1264198E0,9.472902E0,1.0973494E0],"tree_param":{"num_deleted":"0","num_feature":"556","num_nodes":"21","size_leaf_vector":"1"}},{"base_weights":[-9.691302E-4,9.856341E-1,-6.218733E-1,-1.4386597E-3,1.24653734E-1,3.7114587E-1,-1.2691438E0,9.790767E-2,-1.4182149E-1,9.804014E-1,-1.2799595E-1,-1.6267973E0,9.9119514E-2,1.1918821E-1,-5.01928E-2,7.014333E-2,-1.8122512E0,-2.0488273E-1,-1.3131675E-1,-4.3027434E-3,-1.631343E-2],"categories":[],"categories_nodes":[],"categories_segments":[],"categories_sizes":[],"default_left":[0,1,0,0,0,0,1,0,0,1,0,0,0,0,0,0,1,0,0,0,0],"id":3,"left_children":[1,3,5,7,-1,9,11,-1,-1,13,-1,15,-1,-1,-1,-1,17,-1,19,-1,-1],"loss_changes":[3.5043552E1,5.692274E0,2.3037437E1,9.193362E0,0E0,1.5969852E1,1.8978111E1,0E0,0E0,4.125392E0,0E0,9.4426E0,0E0,0E0,0E0,0E0,6.812561E0,0E0,2.1541677E-3,0E0,0E0],"parents":[2147483647,0,0,1,1,2,2,3,3,5,5,6,6,9,9,11,11,16,16,18,18],"right_children":[2,4,6,8,-1,10,12,-1,-1,14,-1,16,-1,-1,-1,-1,18,-1,20,-1,-1],"split_conditions":[4.030264E-1,6.811676E-2,4.3179584E-1,1.3676304E-1,1.24653734E-1,5.7929146E-1,2.1468772E-1,9.790767E-2,-1.4182149E-1,1.2505986E-1,-1.2799595E-1,1.5000357E-1,9.9119514E-2,1.1918821E-1,-5.01928E-2,7.014333E-2,1.6045325E-1,-2.0488273E-1,1.816601E-1,-4.3027434E-3,-1.631343E-2],"split_indices":[406,304,256,256,0,337,27,0,0,463,0,124,0,0,0,0,358,0,93,0,0],"split_type":[0,0,0,0,0,0,0,0,0,0,0,0,0,0,0,0,0,0,0,0,0],"sum_hessian":[5.520535E1,2.1096329E1,3.410902E1,4.618331E0,1.6477997E1,1.3628013E1,2.0481009E1,2.91197E0,1.706361E0,1.0251455E1,3.3765569E0,1.7925018E1,2.5559902E0,9.142985E0,1.1084704E0,1.1171985E0,1.6807821E1,1.454227E1,2.265551E0,1.2233208E0,1.0422302E0],"tree_param":{"num_deleted":"0","num_feature":"556","num_nodes":"21","size_leaf_vector":"1"}},{"base_weights":[8.666726E-4,1.1173724E0,-4.858968E-1,1.2034561E-1,-9.066379E-3,7.598929E-1,-1.0803193E0,-6.3429974E-2,1.0957064E-1,-1.5184145E0,2.2362983E-1,-1.7317054E0,7.956423E-2,-1.2974928E-1,8.063556E-1,-1.841081E-1,-4.1047584E-2,1.03984594E-1,-1.6082764E-2],"categories":[],"categories_nodes":[],"categories_segments":[],"categories_sizes":[],"default_left":[0,0,0,0,0,0,1,0,0,1,0,1,0,0,1,0,0,0,0],"id":4,"left_children":[1,3,5,-1,-1,7,9,-1,-1,11,13,15,-1,-1,17,-1,-1,-1,-1],"loss_changes":[3.0107075E1,1.8581352E0,2.9390121E1,0E0,0E0,6.8043966E0,1.5495287E1,0E0,0E0,1.1242752E1,7.732906E0,1.9343414E0,0E0,0E0,1.5382206E0,0E0,0E0,0E0,0E0],"parents":[2147483647,0,0,1,1,2,2,5,5,6,6,9,9,10,10,11,11,14,14],"right_children":[2,4,6,-1,-1,8,10,-1,-1,12,14,16,-1,-1,18,-1,-1,-1,-1],"split_conditions":[4.2332196E-1,1.9318002E-1,1.6565274E-1,1.2034561E-1,-9.066379E-3,9.431329E-2,8.3203815E-2,-6.3429974E-2,1.0957064E-1,3.020596E-1,5.557724E-1,1.23957105E-1,7.956423E-2,-1.2974928E-1,9.572259E-2,-1.841081E-1,-4.1047584E-2,1.03984594E-1,-1.6082764E-2],"split_indices":[512,394,372,0,0,207,223,0,0,27,320,256,0,0,141,0,0,0,0],"split_type":[0,0,0,0,0,0,0,0,0,0,0,0,0,0,0,0,0,0,0],"sum_hessian":[5.3398438E1,1.5818804E1,3.757963E1,1.4770089E1,1.0487142E0,1.2048995E1,2.5530638E1,2.166309E0,9.882686E0,1.8986996E1,6.543643E0,1.7615042E1,1.3719536E0,1.4727211E0,5.070922E0,1.59049225E1,1.7101185E0,4.0242805E0,1.0466411E0],"tree_param":{"num_deleted":"0","num_feature":"556","num_nodes":"19","size_leaf_vector":"1"}},{"base_weights":[1.9870761E-3,1.0792853E0,-4.522001E-1,1.1680188E-1,-9.180707E-3,7.213111E-1,-9.9671453E-1,-5.8726724E-2,1.05601646E-1,9.288676E-2,-1.2365997E0,-1.5285481E0,9.2278995E-2,6.9430664E-2,-1.6949576E0,-4.058323E-2,-1.747381E-1],"categories":[],"categories_nodes":[],"categories_segments":[],"categories_sizes":[],"default_left":[0,1,0,0,0,0,0,0,0,0,1,0,0,0,0,0,0],"id":5,"left_children":[1,3,5,-1,-1,7,9,-1,-1,-1,11,13,-1,-1,15,-1,-1],"loss_changes":[2.6117441E1,1.7521572E0,2.4713634E1,0E0,0E0,6.086937E0,1.3190481E1,0E0,0E0,0E0,1.629515E1,9.009445E0,0E0,0E0,6.418266E-1,0E0,0E0],"parents":[2147483647,0,0,1,1,2,2,5,5,6,6,10,10,11,11,14,14],"right_children":[2,4,6,-1,-1,8,10,-1,-1,-1,12,14,-1,-1,16,-1,-1],"split_conditions":[4.2332196E-1,1.5132518E-1,1.6565274E-1,1.1680188E-1,-9.180707E-3,9.431329E-2,1.5000357E-1,-5.8726724E-2,1.05601646E-1,9.288676E-2,1.9676225E-1,1.9741836E-1,9.2278995E-2,6.9430664E-2,2.241628E-1,-4.058323E-2,-1.747381E-1],"split_indices":[512,304,372,0,0,207,124,0,0,0,27,171,0,0,219,0,0],"split_type":[0,0,0,0,0,0,0,0,0,0,0,0,0,0,0,0,0],"sum_hessian":[5.1380234E1,1.482949E1,3.6550743E1,1.3787441E1,1.0420486E0,1.1481558E1,2.5069187E1,2.1848793E0,9.296679E0,2.4589353E0,2.261025E1,2.017477E1,2.4354804E0,1.1842037E0,1.8990568E1,1.0836763E0,1.790689E1],"tree_param":{"num_deleted":"0","num_feature":"556","num_nodes":"17","size_leaf_vector":"1"}},{"base_weights":[7.044131E-3,8.9147377E-1,-4.993197E-1,7.992558E-3,1.14364676E-1,1.6005261E-1,-1.1533953E0,8.8136785E-2,-1.1278131E-1,8.650753E-1,-6.3440526E-1,-1.4524515E0,8.383203E-2,1.0929527E-1,-4.7540445E-2,4.9657717E-1,-1.423047E-1,7.041973E-3,-1.5874904E-1,-3.618909E-2,8.7295875E-2],"categories":[],"categories_nodes":[],"categories_segments":[],"categories_sizes":[],"default_left":[0,1,0,0,0,0,1,0,0,1,0,0,0,0,0,0,0,0,0,0,0],"id":6,"left_children":[1,3,5,7,-1,9,11,-1,-1,13,15,17,-1,-1,-1,19,-1,-1,-1,-1,-1],"loss_changes":[2.2912745E1,4.14021E0,1.4220152E1,6.0954204E0,0E0,1.01180315E1,1.1021458E1,0E0,0E0,3.4138265E0,8.38597E0,3.130003E0,0E0,0E0,0E0,1.6983297E0,0E0,0E0,0E0,0E0,0E0],"parents":[2147483647,0,0,1,1,2,2,3,3,5,5,6,6,9,9,10,10,11,11,15,15],"right_children":[2,4,6,8,-1,10,12,-1,-1,14,16,18,-1,-1,-1,20,-1,-1,-1,-1,-1],"split_conditions":[4.030264E-1,6.811676E-2,2.0818724E-1,1.3676304E-1,1.14364676E-1,2.1353972E-1,2.1468772E-1,8.8136785E-2,-1.1278131E-1,1.2505986E-1,1.1098721E-1,1.052661E-1,8.383203E-2,1.0929527E-1,-4.7540445E-2,3.0058458E-1,-1.423047E-1,7.041973E-3,-1.5874904E-1,-3.618909E-2,8.7295875E-2],"split_indices":[406,304,337,256,0,256,27,0,0,463,304,459,0,0,0,537,0,0,0,0,0],"split_type":[0,0,0,0,0,0,0,0,0,0,0,0,0,0,0,0,0,0,0,0,0],"sum_hessian":[4.9168484E1,1.7624495E1,3.154399E1,4.1426225E0,1.3481873E1,1.6084518E1,1.5459472E1,2.4684944E0,1.674128E0,8.474837E0,7.60968E0,1.3676672E1,1.7827997E0,7.4012957E0,1.0735419E0,3.278442E0,4.3312383E0,1.1529591E0,1.2523713E1,1.0110022E0,2.2674398E0],"tree_param":{"num_deleted":"0","num_feature":"556","num_nodes":"21","size_leaf_vector":"1"}},{"base_weights":[7.6698093E-3,1.018447E0,-3.974115E-1,1.10953905E-1,-8.03622E-3,6.59236E-1,-8.6990863E-1,-5.321231E-2,9.9300456E-1,8.741229E-2,-1.0849682E0,3.1416927E-2,1.0592566E-1,-1.3387516E0,8.5815586E-2,6.403796E-2,-1.4838836E0,-3.504848E-2,-1.5304463E-1],"categories":[],"categories_nodes":[],"categories_segments":[],"categories_sizes":[],"default_left":[0,1,0,0,0,0,0,0,0,0,1,0,0,0,0,0,0,0,0],"id":7,"left_children":[1,3,5,-1,-1,7,9,-1,11,-1,13,-1,-1,15,-1,-1,17,-1,-1],"loss_changes":[1.9991287E1,1.4871492E0,1.798263E1,0E0,0E0,5.038983E0,1.0147482E1,0E0,8.14209E-2,0E0,1.2135899E1,0E0,0E0,6.722805E0,0E0,0E0,4.6764374E-1,0E0,0E0],"parents":[2147483647,0,0,1,1,2,2,5,5,6,6,8,8,10,10,13,13,16,16],"right_children":[2,4,6,-1,-1,8,10,-1,12,-1,14,-1,-1,16,-1,-1,18,-1,-1],"split_conditions":[4.2332196E-1,1.5132518E-1,1.6565274E-1,1.10953905E-1,-8.03622E-3,9.431329E-2,1.5000357E-1,-5.321231E-2,1.0937203E-1,8.741229E-2,1.9676225E-1,3.1416927E-2,1.0592566E-1,1.9741836E-1,8.5815586E-2,6.403796E-2,2.241628E-1,-3.504848E-2,-1.5304463E-1],"split_indices":[512,304,372,0,0,207,124,0,429,0,27,0,0,171,0,0,219,0,0],"split_type":[0,0,0,0,0,0,0,0,0,0,0,0,0,0,0,0,0,0,0],"sum_hessian":[4.6836586E1,1.2966874E1,3.3869713E1,1.1965187E1,1.0016874E0,1.0343432E1,2.352628E1,2.1335645E0,8.209868E0,2.2461882E0,2.1280092E1,1.2405814E0,6.9692864E0,1.9096949E1,2.1831424E0,1.0715868E0,1.8025362E1,1.0477923E0,1.697757E1],"tree_param":{"num_deleted":"0","num_feature":"556","num_nodes":"19","size_leaf_vector":"1"}},{"base_weights":[1.3178136E-2,8.4535307E-1,-4.4452503E-1,1.3592455E-2,1.0923505E-1,1.5577011E-1,-1.0266526E0,8.267921E-2,-9.974214E-2,8.059695E-1,-5.584637E-1,-1.2948757E0,7.774155E-2,1.0419619E-1,-4.5230623E-2,4.63932E-1,-1.254631E-1,9.093986E-3,-1.4202985E-1,7.8176185E-2,-1.7146258E-2],"categories":[],"categories_nodes":[],"categories_segments":[],"categories_sizes":[],"default_left":[0,1,0,0,0,0,1,0,0,1,0,0,0,0,0,1,0,0,0,0,0],"id":8,"left_children":[1,3,5,7,-1,9,11,-1,-1,13,15,17,-1,-1,-1,19,-1,-1,-1,-1,-1],"loss_changes":[1.7708918E1,3.3734064E0,1.0648474E1,4.7617908E0,0E0,7.7155437E0,8.443907E0,0E0,0E0,3.0246758E0,6.3089204E0,2.520033E0,0E0,0E0,0E0,9.396924E-1,0E0,0E0,0E0,0E0,0E0],"parents":[2147483647,0,0,1,1,2,2,3,3,5,5,6,6,9,9,10,10,11,11,15,15],"right_children":[2,4,6,8,-1,10,12,-1,-1,14,16,18,-1,-1,-1,20,-1,-1,-1,-1,-1],"split_conditions":[4.030264E-1,6.811676E-2,2.0818724E-1,1.3676304E-1,1.0923505E-1,2.1353972E-1,2.1468772E-1,8.267921E-2,-9.974214E-2,1.2505986E-1,1.1098721E-1,4.0979284E-1,7.774155E-2,1.0419619E-1,-4.5230623E-2,1.4244214E-1,-1.254631E-1,9.093986E-3,-1.4202985E-1,7.8176185E-2,-1.7146258E-2],"split_indices":[406,304,337,256,0,256,27,0,0,463,304,171,0,0,0,286,0,0,0,0,0],"split_type":[0,0,0,0,0,0,0,0,0,0,0,0,0,0,0,0,0,0,0,0,0],"sum_hessian":[4.4507046E1,1.5492445E1,2.9014599E1,3.7887874E0,1.1703658E1,1.4644978E1,1.4369621E1,2.2008047E0,1.5879824E0,7.598908E0,7.046069E0,1.275543E1,1.6141908E0,6.5435615E0,1.0553466E0,2.9894035E0,4.056666E0,1.0814335E0,1.1673997E1,1.839109E0,1.1502945E0],"tree_param":{"num_deleted":"0","num_feature":"556","num_nodes":"21","size_leaf_vector":"1"}},{"base_weights":[1.4001775E-2,4.429513E-1,-8.097338E-1,1.0332474E0,-1.3488701E-1,7.7042416E-2,-1.0686996E0,1.08494066E-1,1.9166172E-2,-8.6763406E-1,5.942415E-1,-1.2563797E0,6.1335117E-2,-5.5074897E-2,-1.2308259E-1,9.959493E-2,-5.1114548E-2,-1.0570793E-2,-1.3560955E-1,-7.961928E-2,6.924754E-2],"categories":[],"categories_nodes":[],"categories_segments":[],"categories_sizes":[],"default_left":[0,0,0,1,1,0,1,0,0,0,0,0,0,0,0,0,0,0,0,0,0],"id":9,"left_children":[1,3,5,7,9,-1,11,-1,-1,13,15,17,-1,19,-1,-1,-1,-1,-1,-1,-1],"loss_changes":[1.5612089E1,1.0042528E1,7.017003E0,4.218855E-1,8.826653E0,0E0,5.0082006E0,0E0,0E0,2.3419003E0,4.2349358E0,1.2798882E0,0E0,2.52871E0,0E0,0E0,0E0,0E0,0E0,0E0,0E0],"parents":[2147483647,0,0,1,1,2,2,3,3,4,4,6,6,9,9,10,10,11,11,13,13],"right_children":[2,4,6,8,10,-1,12,-1,-1,14,16,18,-1,20,-1,-1,-1,-1,-1,-1,-1],"split_conditions":[3.8637006E-1,4.3179584E-1,1.5131174E-1,1.7557506E-1,1.09959245E-1,7.7042416E-2,2.1468772E-1,1.08494066E-1,1.9166172E-2,1.1098721E-1,2.6444373E-1,6.798817E-2,6.1335117E-2,1.1355948E-1,-1.2308259E-1,9.959493E-2,-5.1114548E-2,-1.0570793E-2,-1.3560955E-1,-7.961928E-2,6.924754E-2],"split_indices":[394,256,124,406,27,0,27,0,0,304,207,27,0,93,0,0,0,0,0,0,0],"split_type":[0,0,0,0,0,0,0,0,0,0,0,0,0,0,0,0,0,0,0,0,0],"sum_hessian":[4.2169113E1,2.8033367E1,1.4135744E1,1.3477341E1,1.4556027E1,1.7123461E0,1.2423398E1,1.242499E1,1.0523506E0,7.1652536E0,7.3907743E0,1.1404024E1,1.0193735E0,2.5691059E0,4.596148E0,5.493419E0,1.8973551E0,1.0737333E0,1.0330291E1,1.257428E0,1.3116777E0],"tree_param":{"num_deleted":"0","num_feature":"556","num_nodes":"21","size_leaf_vector":"1"}},{"base_weights":[1.4833759E-2,1.03781894E-1,-3.1087038E-1,6.197588E-1,-7.20135E-1,-4.608838E-2,9.3429494E-1,7.937214E-2,-8.992316E-1,2.6854202E-2,1.00098394E-1,-1.1109813E0,7.89039E-2,2.3172015E-2,-1.2286897E0,1.4470994E-2,-1.341901E-1],"categories":[],"categories_nodes":[],"categories_segments":[],"categories_sizes":[],"default_left":[0,0,0,0,0,0,0,0,1,0,0,0,0,0,0,0,0],"id":10,"left_children":[1,-1,3,5,7,-1,9,-1,11,-1,-1,13,-1,-1,15,-1,-1],"loss_changes":[1.3948683E1,0E0,1.2553907E1,3.9136605E0,6.825405E0,0E0,9.825373E-2,0E0,8.250183E0,0E0,0E0,3.246912E0,0E0,0E0,2.89814E0,0E0,0E0],"parents":[2147483647,0,0,2,2,3,3,4,4,6,6,8,8,11,11,14,14],"right_children":[2,-1,4,6,8,-1,10,-1,12,-1,-1,14,-1,-1,16,-1,-1],"split_conditions":[4.4384676E-1,1.03781894E-1,1.6565274E-1,9.431329E-2,1.5000357E-1,-4.608838E-2,2.5346664E-1,7.937214E-2,1.9676225E-1,2.6854202E-2,1.00098394E-1,4.0979284E-1,7.89039E-2,2.3172015E-2,3.1366447E-1,1.4470994E-2,-1.341901E-1],"split_indices":[513,0,372,207,124,0,265,0,27,0,0,171,0,0,450,0,0],"split_type":[0,0,0,0,0,0,0,0,0,0,0,0,0,0,0,0,0],"sum_hessian":[3.9895695E1,9.106677E0,3.0789017E1,9.247272E0,2.1541746E1,1.9798565E0,7.2674146E0,1.9158411E0,1.9625906E1,1.1193887E0,6.148026E0,1.7742508E1,1.8833969E0,1.3519686E0,1.639054E1,1.2270161E0,1.5163524E1],"tree_param":{"num_deleted":"0","num_feature":"556","num_nodes":"17","size_leaf_vector":"1"}},{"base_weights":[2.0703964E-2,9.2926997E-1,-3.1979692E-1,1.0235969E-1,1.3118146E-3,5.662347E-1,-7.0650905E-1,9.760352E-2,-3.0923635E-1,7.690749E-2,-8.90591E-1,-8.825967E-2,3.8319856E-2,-1.110081E0,7.645718E-2,2.377992E-2,-1.2395436E0,-1.2862636E-1,-3.8521126E-2],"categories":[],"categories_nodes":[],"categories_segments":[],"categories_sizes":[],"default_left":[0,1,0,0,0,0,0,0,0,0,1,0,0,0,0,0,1,0,0],"id":11,"left_children":[1,3,5,-1,-1,7,9,-1,11,-1,13,-1,-1,15,-1,-1,17,-1,-1],"loss_changes":[1.2267995E1,9.202566E-1,1.0298958E1,0E0,0E0,3.650261E0,6.2688093E0,0E0,1.8211433E0,0E0,7.656949E0,0E0,0E0,3.2532368E0,0E0,0E0,1.283493E-1,0E0,0E0],"parents":[2147483647,0,0,1,1,2,2,5,5,6,6,8,8,10,10,13,13,16,16],"right_children":[2,4,6,-1,-1,8,10,-1,12,-1,14,-1,-1,16,-1,-1,18,-1,-1],"split_conditions":[4.2332196E-1,1.5769167E-1,1.6565274E-1,1.0235969E-1,1.3118146E-3,1.772209E-1,1.5000357E-1,9.760352E-2,9.431329E-2,7.690749E-2,1.9676225E-1,-8.825967E-2,3.8319856E-2,3.2593778E-1,7.645718E-2,2.377992E-2,1.7415582E-1,-1.2862636E-1,-3.8521126E-2],"split_indices":[512,175,372,0,0,394,124,0,207,0,27,0,0,183,0,0,165,0,0],"split_type":[0,0,0,0,0,0,0,0,0,0,0,0,0,0,0,0,0,0,0],"sum_hessian":[3.769449E1,9.804309E0,2.7890179E1,8.782758E0,1.021551E0,8.333137E0,1.9557041E1,5.5979266E0,2.7352104E0,1.8166945E0,1.7740347E1,1.3460261E0,1.3891844E0,1.5954018E1,1.7863289E0,1.3247507E0,1.4629268E1,1.3391369E1,1.2378985E0],"tree_param":{"num_deleted":"0","num_feature":"556","num_nodes":"19","size_leaf_vector":"1"}},{"base_weights":[2.4364047E-2,4.2109233E-1,-7.1295434E-1,9.763297E-1,-1.1270671E-1,7.004114E-2,-9.508416E-1,1.03104256E-1,1.9234184E-2,-7.533119E-1,5.451599E-1,-1.1104131E0,2.0102939E-2,-1.41674755E-2,-1.079993E-1,9.246457E-2,-4.1231226E-2,-2.2915628E-2,-1.1897228E-1,-6.749771E-2,6.314446E-2],"categories":[],"categories_nodes":[],"categories_segments":[],"categories_sizes":[],"default_left":[0,0,0,1,1,0,1,0,0,0,0,0,0,0,0,0,0,0,0,0,0],"id":12,"left_children":[1,3,5,7,9,-1,11,-1,-1,13,15,17,-1,19,-1,-1,-1,-1,-1,-1,-1],"loss_changes":[1.099514E1,7.341841E0,5.091309E0,3.191347E-1,6.0311875E0,0E0,2.3719044E0,0E0,0E0,1.7176499E0,2.9827516E0,4.5570183E-1,0E0,1.7969747E0,0E0,0E0,0E0,0E0,0E0,0E0,0E0],"parents":[2147483647,0,0,1,1,2,2,3,3,4,4,6,6,9,9,10,10,11,11,13,13],"right_children":[2,4,6,8,10,-1,12,-1,-1,14,16,18,-1,20,-1,-1,-1,-1,-1,-1,-1],"split_conditions":[3.8637006E-1,4.3179584E-1,1.5131174E-1,1.7289525E-1,1.09959245E-1,7.004114E-2,1.537637E-1,1.03104256E-1,1.9234184E-2,1.1098721E-1,2.6444373E-1,1.4228152E-1,2.0102939E-2,1.1355948E-1,-1.079993E-1,9.246457E-2,-4.1231226E-2,-2.2915628E-2,-1.1897228E-1,-6.749771E-2,6.314446E-2],"split_indices":[394,256,124,406,27,0,27,0,0,304,207,93,0,93,0,0,0,0,0,0,0],"split_type":[0,0,0,0,0,0,0,0,0,0,0,0,0,0,0,0,0,0,0,0,0],"sum_hessian":[3.5561947E1,2.3400011E1,1.2161938E1,1.10633335E1,1.2336677E1,1.4720008E0,1.0689937E1,1.0047045E1,1.0162891E0,6.176832E0,6.1598444E0,9.420836E0,1.2690998E0,2.2130294E0,3.963803E0,4.4359703E0,1.723874E0,1.0989652E0,8.321872E0,1.0711652E0,1.1418642E0],"tree_param":{"num_deleted":"0","num_feature":"556","num_nodes":"21","size_leaf_vector":"1"}},{"base_weights":[2.3920026E-2,9.808951E-2,-2.6917416E-1,5.555115E-1,-6.277945E-1,9.4267E-2,-2.7017555E-1,-7.9510903E-1,7.338896E-2,-7.99855E-2,3.572431E-2,7.217301E-2,-9.9212116E-1,2.3163466E-2,-1.1082722E0,1.3850792E-2,-1.2172703E-1],"categories":[],"categories_nodes":[],"categories_segments":[],"categories_sizes":[],"default_left":[0,0,0,0,1,0,0,0,0,0,0,0,0,0,0,0,0],"id":13,"left_children":[1,-1,3,5,7,-1,9,11,-1,-1,-1,-1,13,-1,15,-1,-1],"loss_changes":[9.962872E0,0E0,8.409733E0,3.064912E0,5.018271E0,0E0,1.4766328E0,6.0398455E0,0E0,0E0,0E0,0E0,2.5577364E0,0E0,2.201334E0,0E0,0E0],"parents":[2147483647,0,0,2,2,3,3,4,4,6,6,7,7,12,12,14,14],"right_children":[2,-1,4,6,8,-1,10,12,-1,-1,-1,-1,14,-1,16,-1,-1],"split_conditions":[4.4384676E-1,9.808951E-2,1.6565274E-1,1.772209E-1,1.9676225E-1,9.4267E-2,9.431329E-2,1.5000357E-1,7.338896E-2,-7.99855E-2,3.572431E-2,7.217301E-2,4.0979284E-1,2.3163466E-2,3.1366447E-1,1.3850792E-2,-1.2172703E-1],"split_indices":[513,0,372,394,27,0,207,124,0,0,0,0,171,0,450,0,0],"split_type":[0,0,0,0,0,0,0,0,0,0,0,0,0,0,0,0,0],"sum_hessian":[3.3578964E1,7.322793E0,2.625617E1,7.790973E0,1.8465199E1,5.2075243E0,2.583449E0,1.681515E1,1.6500483E0,1.2518106E0,1.3316383E0,1.6267867E0,1.5188363E1,1.2304293E0,1.3957933E1,1.100385E0,1.2857549E1],"tree_param":{"num_deleted":"0","num_feature":"556","num_nodes":"17","size_leaf_vector":"1"}},{"base_weights":[2.9258225E-2,-2.5043702E-1,9.727029E-2,3.8996074E-1,-7.232654E-1,8.7604964E-1,-4.145584E-1,-1.0694367E0,2.1253005E-1,9.494324E-2,2.2176467E-2,3.4628313E-2,-7.651831E-2,-1.1410995E-1,-2.2226373E-2,8.1918426E-2,-7.9154275E-2],"categories":[],"categories_nodes":[],"categories_segments":[],"categories_sizes":[],"default_left":[1,0,0,0,1,1,0,1,0,0,0,0,0,0,0,0,0],"id":14,"left_children":[1,3,-1,5,7,9,11,13,15,-1,-1,-1,-1,-1,-1,-1,-1],"loss_changes":[8.836874E0,8.128748E0,0E0,4.921588E0,5.1699314E0,1.5374231E-1,1.6172193E0,4.3261433E-1,3.6661823E0,0E0,0E0,0E0,0E0,0E0,0E0,0E0,0E0],"parents":[2147483647,0,0,1,1,3,3,4,4,5,5,6,6,7,7,8,8],"right_children":[2,4,-1,6,8,10,12,14,16,-1,-1,-1,-1,-1,-1,-1,-1],"split_conditions":[1.5594074E-1,4.3179584E-1,9.727029E-2,1.9103815E-1,8.400333E-2,1.2408146E-1,1.0133572E-1,1.663082E-1,1.4347655E-1,9.494324E-2,2.2176467E-2,3.4628313E-2,-7.651831E-2,-1.1410995E-1,-2.2226373E-2,8.1918426E-2,-7.9154275E-2],"split_indices":[27,256,0,394,223,27,141,93,304,0,0,0,0,0,0,0,0],"split_type":[0,0,0,0,0,0,0,0,0,0,0,0,0,0,0,0,0],"sum_hessian":[3.1565456E1,2.4913969E1,6.6514883E0,1.0656324E1,1.4257645E1,6.5873494E0,4.0689745E0,1.0303386E1,3.954259E0,5.5174313E0,1.0699182E0,1.2875104E0,2.781464E0,9.179902E0,1.123483E0,2.5797372E0,1.3745216E0],"tree_param":{"num_deleted":"0","num_feature":"556","num_nodes":"17","size_leaf_vector":"1"}},{"base_weights":[2.952239E-2,9.471231E-2,-2.4784768E-1,5.194155E-1,-5.8351505E-1,9.016431E-2,-2.348682E-1,-7.419183E-1,6.831429E-2,-7.366886E-2,3.3678725E-2,6.7875475E-2,-9.312904E-1,-1.0484302E0,2.1576732E-2,1.2586965E-2,-1.1566508E-1],"categories":[],"categories_nodes":[],"categories_segments":[],"categories_sizes":[],"default_left":[0,0,0,0,1,0,0,0,0,0,0,0,1,0,0,0,0],"id":15,"left_children":[1,-1,3,5,7,-1,9,11,-1,-1,-1,-1,13,15,-1,-1,-1],"loss_changes":[8.05565E0,0E0,6.584278E0,2.5042627E0,4.0054727E0,0E0,1.2428463E0,4.93085E0,0E0,0E0,0E0,0E0,2.1772814E0,1.841608E0,0E0,0E0,0E0],"parents":[2147483647,0,0,2,2,3,3,4,4,6,6,7,7,12,12,13,13],"right_children":[2,-1,4,6,8,-1,10,12,-1,-1,-1,-1,14,16,-1,-1,-1],"split_conditions":[4.4384676E-1,9.471231E-2,1.6565274E-1,1.772209E-1,1.9676225E-1,9.016431E-2,9.431329E-2,1.5000357E-1,6.831429E-2,-7.366886E-2,3.3678725E-2,6.7875475E-2,2.0937051E-1,3.1366447E-1,2.1576732E-2,1.2586965E-2,-1.1566508E-1],"split_indices":[513,0,372,394,27,0,207,124,0,0,0,0,286,450,0,0,0],"split_type":[0,0,0,0,0,0,0,0,0,0,0,0,0,0,0,0,0],"sum_hessian":[2.9728672E1,6.33998E0,2.3388693E1,6.951547E0,1.6437145E1,4.483967E0,2.46758E0,1.4978291E1,1.4588549E0,1.1603172E0,1.3072628E0,1.4577776E0,1.3520514E1,1.2345727E1,1.1747864E0,1.0279859E0,1.1317741E1],"tree_param":{"num_deleted":"0","num_feature":"556","num_nodes":"17","size_leaf_vector":"1"}},{"base_weights":[3.5001222E-2,9.308977E-2,-2.3305734E-1,4.996812E-1,-5.5491585E-1,8.8209376E-2,-2.2746561E-1,-7.3877037E-1,7.024387E-2,-7.109638E-2,3.213363E-2,6.0928125E-2,-8.974569E-1,2.4104169E-2,-1.0155752E0,-3.3596843E-2,-1.120932E-1],"categories":[],"categories_nodes":[],"categories_segments":[],"categories_sizes":[],"default_left":[0,0,0,0,1,0,0,0,0,0,0,0,0,0,0,0,0],"id":16,"left_children":[1,-1,3,5,7,-1,9,11,-1,-1,-1,-1,13,-1,15,-1,-1],"loss_changes":[7.1648803E0,0E0,5.7176404E0,2.3046637E0,4.3336415E0,0E0,1.1313759E0,3.7307491E0,0E0,0E0,0E0,0E0,2.0899334E0,0E0,5.272169E-1,0E0,0E0],"parents":[2147483647,0,0,2,2,3,3,4,4,6,6,7,7,12,12,14,14],"right_children":[2,-1,4,6,8,-1,10,12,-1,-1,-1,-1,14,-1,16,-1,-1],"split_conditions":[4.3408555E-1,9.308977E-2,1.6565274E-1,1.772209E-1,1.985346E-1,8.8209376E-2,9.431329E-2,1.5000357E-1,7.024387E-2,-7.109638E-2,3.213363E-2,6.0928125E-2,3.2593778E-1,2.4104169E-2,1.416943E-1,-3.3596843E-2,-1.120932E-1],"split_indices":[60,0,372,394,27,0,207,124,0,0,0,0,183,0,429,0,0],"split_type":[0,0,0,0,0,0,0,0,0,0,0,0,0,0,0,0,0],"sum_hessian":[2.7931292E1,5.863098E0,2.2068192E1,6.5665016E0,1.5501691E1,4.1636925E0,2.4028091E0,1.3883972E1,1.617719E0,1.1203178E0,1.2824912E0,1.1631782E0,1.2720794E1,1.0978959E0,1.1622898E1,2.1222343E0,9.500664E0],"tree_param":{"num_deleted":"0","num_feature":"556","num_nodes":"17","size_leaf_vector":"1"}},{"base_weights":[3.8954683E-2,9.142042E-2,-2.2192344E-1,4.806118E-1,-5.316007E-1,-2.264982E-1,8.687249E-2,6.40121E-2,-6.840073E-1,-6.8680756E-2,2.9606907E-2,-8.659762E-1,6.4067386E-2,-1.4717148E-1,-1.0911894E-1,3.554774E-2,-6.9650486E-2],"categories":[],"categories_nodes":[],"categories_segments":[],"categories_sizes":[],"default_left":[0,0,0,1,0,0,0,0,1,0,0,0,0,0,0,0,0],"id":17,"left_children":[1,-1,3,5,7,9,-1,-1,11,-1,-1,13,-1,15,-1,-1,-1],"loss_changes":[6.4384074E0,0E0,5.0076065E0,2.1748667E0,3.2299223E0,1.0085392E0,0E0,0E0,4.0063863E0,0E0,0E0,1.9462872E0,0E0,1.4240928E0,0E0,0E0,0E0],"parents":[2147483647,0,0,2,2,3,3,4,4,5,5,8,8,11,11,13,13],"right_children":[2,-1,4,6,8,10,-1,-1,12,-1,-1,14,-1,16,-1,-1,-1],"split_conditions":[4.4384676E-1,9.142042E-2,1.6565274E-1,1.00603245E-1,1.5000357E-1,9.431329E-2,8.687249E-2,6.40121E-2,1.9676225E-1,-6.8680756E-2,2.9606907E-2,1.2041656E-1,6.4067386E-2,9.63167E-2,-1.0911894E-1,3.554774E-2,-6.9650486E-2],"split_indices":[513,0,372,256,124,207,0,0,27,0,0,459,0,394,0,0,0],"split_type":[0,0,0,0,0,0,0,0,0,0,0,0,0,0,0,0,0],"sum_hessian":[2.6308853E1,5.466004E0,2.084285E1,6.2078094E0,1.4635039E1,2.3474185E0,3.8603907E0,1.3161573E0,1.3318882E1,1.0809535E0,1.2664651E0,1.2014719E1,1.3041635E0,3.2608042E0,8.753915E0,1.8870323E0,1.373772E0],"tree_param":{"num_deleted":"0","num_feature":"556","num_nodes":"17","size_leaf_vector":"1"}},{"base_weights":[4.1965332E-2,8.9693345E-2,-2.1034862E-1,4.6196768E-1,-5.083538E-1,8.460074E-2,-2.2536796E-1,6.219249E-2,-6.58619E-1,-6.640554E-2,2.8160224E-2,-8.382534E-1,6.2238593E-2,2.4116702E-2,-9.596439E-1,1.1835839E-2,-1.0762719E-1],"categories":[],"categories_nodes":[],"categories_segments":[],"categories_sizes":[],"default_left":[0,0,0,0,0,0,0,0,1,0,0,0,0,0,0,0,0],"id":18,"left_children":[1,-1,3,5,7,-1,9,-1,11,-1,-1,13,-1,-1,15,-1,-1],"loss_changes":[5.7406387E0,0E0,4.3786206E0,2.0056422E0,2.9243612E0,0E0,9.107671E-1,0E0,3.6408162E0,0E0,0E0,1.8449249E0,0E0,0E0,1.5442829E0,0E0,0E0],"parents":[2147483647,0,0,2,2,3,3,4,4,6,6,8,8,11,11,14,14],"right_children":[2,-1,4,6,8,-1,10,-1,12,-1,-1,14,-1,-1,16,-1,-1],"split_conditions":[4.4384676E-1,8.9693345E-2,1.6565274E-1,1.772209E-1,1.5000357E-1,8.460074E-2,9.431329E-2,6.219249E-2,1.9676225E-1,-6.640554E-2,2.8160224E-2,4.0979284E-1,6.2238593E-2,2.4116702E-2,2.9553226E-1,1.1835839E-2,-1.0762719E-1],"split_indices":[513,0,372,394,124,0,207,0,27,0,0,171,0,0,219,0,0],"split_type":[0,0,0,0,0,0,0,0,0,0,0,0,0,0,0,0,0],"sum_hessian":[2.4736881E1,5.0545754E0,1.9682306E1,5.8758535E0,1.3806452E1,3.621524E0,2.2543294E0,1.2517873E0,1.2554665E1,1.0424412E0,1.2118882E0,1.131377E1,1.2408938E0,1.0439681E0,1.0269803E1,1.0011597E0,9.268643E0],"tree_param":{"num_deleted":"0","num_feature":"556","num_nodes":"17","size_leaf_vector":"1"}},{"base_weights":[4.7655173E-2,3.9462903E-1,-5.506857E-1,9.247268E-2,-2.0918205E-2,5.9284907E-2,-7.7944833E-1,-4.702341E-1,6.1754507E-1,-9.0614015E-1,-1.1601523E-3,-7.068432E-1,2.5050333E-2,4.6032276E-3,7.7667445E-2,-2.8078184E-2,-9.924152E-2,-8.955844E-2,-1.1387524E-3],"categories":[],"categories_nodes":[],"categories_segments":[],"categories_sizes":[],"default_left":[0,0,0,0,1,0,1,1,0,0,0,1,0,0,0,0,0,0,0],"id":19,"left_children":[1,3,5,-1,7,-1,9,11,13,15,-1,17,-1,-1,-1,-1,-1,-1,-1],"loss_changes":[5.2512693E0,3.5284111E0,2.8994913E0,0E0,3.132632E0,0E0,7.8680754E-1,1.2655728E0,3.7574863E-1,1.00224495E-1,0E0,6.549108E-1,0E0,0E0,0E0,0E0,0E0,0E0,0E0],"parents":[2147483647,0,0,1,1,2,2,4,4,6,6,7,7,8,8,9,9,11,11],"right_children":[2,4,6,-1,8,-1,10,12,14,16,-1,18,-1,-1,-1,-1,-1,-1,-1],"split_conditions":[3.8637006E-1,1.654037E-1,1.5131174E-1,9.247268E-2,8.073372E-2,5.9284907E-2,1.516081E-1,1.5378076E-1,7.995643E-2,9.02035E-2,-1.1601523E-3,1.0100888E-1,2.5050333E-2,4.6032276E-3,7.7667445E-2,-2.8078184E-2,-9.924152E-2,-8.955844E-2,-1.1387524E-3],"split_indices":[394,256,124,0,223,0,27,27,394,337,0,337,0,0,0,0,0,0,0],"split_type":[0,0,0,0,0,0,0,0,0,0,0,0,0,0,0,0,0,0,0],"sum_hessian":[2.3247318E1,1.4929983E1,8.317335E0,6.022274E0,8.907709E0,1.1211922E0,7.196143E0,5.382962E0,3.5247467E0,6.02237E0,1.1737735E0,4.067071E0,1.3158911E0,1.0484647E0,2.476282E0,1.2459179E0,4.776452E0,2.9725723E0,1.0944988E0],"tree_param":{"num_deleted":"0","num_feature":"556","num_nodes":"19","size_leaf_vector":"1"}},{"base_weights":[4.7056146E-2,-1.9477768E-1,8.760952E-2,3.417314E-1,-6.03273E-1,7.7903084E-2,-3.1016016E-1,-9.18893E-1,2.1066853E-1,2.6054842E-2,-6.0388993E-2,-9.87494E-2,-2.4555722E-2,7.135876E-2,-6.1016895E-2],"categories":[],"categories_nodes":[],"categories_segments":[],"categories_sizes":[],"default_left":[1,0,0,0,1,0,0,1,0,0,0,0,0,0,0],"id":20,"left_children":[1,3,-1,5,7,-1,9,11,13,-1,-1,-1,-1,-1,-1],"loss_changes":[4.7937956E0,4.297893E0,0E0,2.7242608E0,3.00946E0,0E0,8.633739E-1,1.3096762E-1,2.0355783E0,0E0,0E0,0E0,0E0,0E0,0E0],"parents":[2147483647,0,0,1,1,3,3,4,4,6,6,7,7,8,8],"right_children":[2,4,-1,6,8,-1,10,12,14,-1,-1,-1,-1,-1,-1],"split_conditions":[1.5594074E-1,4.3179584E-1,8.760952E-2,1.9103815E-1,8.400333E-2,7.7903084E-2,1.0133572E-1,1.6419095E-1,1.4347655E-1,2.6054842E-2,-6.0388993E-2,-9.87494E-2,-2.4555722E-2,7.135876E-2,-6.1016895E-2],"split_indices":[27,256,0,394,223,0,141,93,304,0,0,0,0,0,0],"split_type":[0,0,0,0,0,0,0,0,0,0,0,0,0,0,0],"sum_hessian":[2.20593E1,1.7669962E1,4.3893385E0,7.7088113E0,9.96115E0,4.4970713E0,3.2117398E0,7.084911E0,2.8762398E0,1.1297104E0,2.0820293E0,6.0063953E0,1.0785154E0,1.8645234E0,1.0117164E0],"tree_param":{"num_deleted":"0","num_feature":"556","num_nodes":"15","size_leaf_vector":"1"}},{"base_weights":[4.58247E-2,-1.889338E-1,8.584825E-2,3.2661116E-1,-5.8611584E-1,7.546276E-2,-2.928294E-1,-8.929923E-1,2.0057015E-1,-5.6865734E-1,2.700044E-2,-9.648424E-2,-2.3367187E-2,6.868724E-2,-5.4597378E-2,-7.209197E-2,-1.3018447E-2],"categories":[],"categories_nodes":[],"categories_segments":[],"categories_sizes":[],"default_left":[1,0,0,0,1,0,1,1,0,0,0,0,0,0,0,0,0],"id":21,"left_children":[1,3,-1,5,7,-1,9,11,13,15,-1,-1,-1,-1,-1,-1,-1],"loss_changes":[4.3229275E0,3.824118E0,0E0,2.438057E0,2.684643E0,0E0,7.9585826E-1,1.3691664E-1,1.7288201E0,1.1302042E-1,0E0,0E0,0E0,0E0,0E0,0E0,0E0],"parents":[2147483647,0,0,1,1,3,3,4,4,6,6,7,7,8,8,9,9],"right_children":[2,4,-1,6,8,-1,10,12,14,16,-1,-1,-1,-1,-1,-1,-1],"split_conditions":[1.5594074E-1,4.3179584E-1,8.584825E-2,1.9103815E-1,8.400333E-2,7.546276E-2,1.07450776E-1,1.6419095E-1,1.3914584E-1,1.544512E-1,2.700044E-2,-9.648424E-2,-2.3367187E-2,6.868724E-2,-5.4597378E-2,-7.209197E-2,-1.3018447E-2],"split_indices":[27,256,0,394,223,0,207,93,304,429,0,0,0,0,0,0,0],"split_type":[0,0,0,0,0,0,0,0,0,0,0,0,0,0,0,0,0],"sum_hessian":[2.0809246E1,1.6740736E1,4.0685096E0,7.362213E0,9.378523E0,4.224771E0,3.1374416E0,6.6495023E0,2.7290204E0,2.0986228E0,1.0388188E0,5.578222E0,1.0712808E0,1.7009465E0,1.0280739E0,1.0795739E0,1.0190489E0],"tree_param":{"num_deleted":"0","num_feature":"556","num_nodes":"17","size_leaf_vector":"1"}},{"base_weights":[4.356059E-2,8.393351E-2,-1.8907826E-1,4.1877124E-1,-4.665645E-1,-1.8935068E-2,7.8694396E-2,5.5368543E-2,-6.117404E-1,-7.687269E-1,2.9976657E-2,-1.1669956E-1,-9.88032E-2,3.020361E-2,-5.7941705E-2],"categories":[],"categories_nodes":[],"categories_segments":[],"categories_sizes":[],"default_left":[0,0,0,1,0,0,0,0,1,0,0,0,0,0,0],"id":22,"left_children":[1,-1,3,5,7,-1,-1,-1,9,11,-1,13,-1,-1,-1],"loss_changes":[3.987303E0,0E0,3.0321987E0,1.4472352E0,2.119113E0,0E0,0E0,0E0,1.8041987E0,1.2664018E0,0E0,8.659289E-1,0E0,0E0,0E0],"parents":[2147483647,0,0,2,2,3,3,4,4,8,8,9,9,11,11],"right_children":[2,-1,4,6,8,-1,-1,-1,10,12,-1,14,-1,-1,-1],"split_conditions":[4.4384676E-1,8.393351E-2,1.6565274E-1,1.00603245E-1,1.5000357E-1,-1.8935068E-2,7.8694396E-2,5.5368543E-2,1.5378076E-1,1.2041656E-1,2.9976657E-2,9.63167E-2,-9.88032E-2,3.020361E-2,-5.7941705E-2],"split_indices":[513,0,372,256,124,0,0,0,27,459,0,394,0,0,0],"split_type":[0,0,0,0,0,0,0,0,0,0,0,0,0,0,0],"sum_hessian":[1.9680838E1,3.862096E0,1.5818741E1,4.7984033E0,1.1020338E1,1.9927008E0,2.8057027E0,1.0222685E0,9.998069E0,8.662748E0,1.3353207E0,2.5659432E0,6.096805E0,1.5292795E0,1.0366638E0],"tree_param":{"num_deleted":"0","num_feature":"556","num_nodes":"15","size_leaf_vector":"1"}},{"base_weights":[4.6370823E-2,7.5515114E-2,-1.998768E-1,4.019672E-1,-4.7712758E-1,7.8698E-2,-2.5450245E-2,5.581047E-2,-6.458726E-1,-7.627217E-1,9.50937E-3,-8.688772E-1,-1.696474E-2,-1.8594371E-2,-9.6458E-2],"categories":[],"categories_nodes":[],"categories_segments":[],"categories_sizes":[],"default_left":[0,0,0,0,0,0,0,0,1,1,0,0,0,0,0],"id":23,"left_children":[1,-1,3,5,7,-1,-1,-1,9,11,-1,13,-1,-1,-1],"loss_changes":[3.5807512E0,0E0,2.757273E0,1.5630414E0,2.279121E0,0E0,0E0,0E0,9.303231E-1,3.9836073E-1,0E0,2.8534222E-1,0E0,0E0,0E0],"parents":[2147483647,0,0,2,2,3,3,4,4,8,8,9,9,11,11],"right_children":[2,-1,4,6,8,-1,-1,-1,10,12,-1,14,-1,-1,-1],"split_conditions":[4.2332196E-1,7.5515114E-2,3.184017E-1,9.573488E-2,4.667331E-1,7.8698E-2,-2.5450245E-2,5.581047E-2,1.23957105E-1,1.2566967E-1,9.50937E-3,2.3292403E-1,-1.696474E-2,-1.8594371E-2,-9.6458E-2],"split_indices":[512,0,223,304,395,0,0,0,256,429,0,196,0,0,0],"split_type":[0,0,0,0,0,0,0,0,0,0,0,0,0,0,0],"sum_hessian":[1.86511E1,4.276195E0,1.4374906E1,4.3917193E0,9.983187E0,2.6428864E0,1.7488327E0,1.0758123E0,8.907374E0,7.6686764E0,1.2386979E0,6.1099977E0,1.5586786E0,1.1127028E0,4.997295E0],"tree_param":{"num_deleted":"0","num_feature":"556","num_nodes":"15","size_leaf_vector":"1"}},{"base_weights":[4.6939593E-2,-1.7456543E-1,8.1645995E-2,7.214587E-2,-3.6456296E-1,4.197231E-1,-5.6702524E-1,7.9509214E-4,6.0142964E-2,-9.3463026E-2,-6.510919E-2,4.522185E-2,-3.592279E-1,-6.764799E-2,1.9632787E-2],"categories":[],"categories_nodes":[],"categories_segments":[],"categories_sizes":[],"default_left":[1,0,0,0,0,1,1,0,0,0,0,0,1,0,0],"id":24,"left_children":[1,3,-1,-1,5,7,9,-1,-1,-1,11,-1,13,-1,-1],"loss_changes":[3.3482308E0,2.889396E0,0E0,0E0,2.364587E0,2.4381751E-1,1.9816515E0,0E0,0E0,0E0,1.0380973E0,0E0,8.77701E-1,0E0,0E0],"parents":[2147483647,0,0,1,1,4,4,5,5,6,6,10,10,12,12],"right_children":[2,4,-1,-1,6,8,10,-1,-1,-1,12,-1,14,-1,-1],"split_conditions":[1.5594074E-1,3.344841E-1,8.1645995E-2,7.214587E-2,1.7910011E-1,8.10741E-2,7.1994334E-2,7.9509214E-4,6.0142964E-2,-9.3463026E-2,1.0540503E-1,4.522185E-2,7.75557E-2,-6.764799E-2,1.9632787E-2],"split_indices":[27,0,0,0,406,256,337,0,0,0,141,0,27,0,0],"split_type":[0,0,0,0,0,0,0,0,0,0,0,0,0,0,0],"sum_hessian":[1.7807013E1,1.4427293E1,3.3797197E0,2.0346634E0,1.239263E1,2.322557E0,1.0070073E1,1.030671E0,1.291886E0,5.315129E0,4.754944E0,1.5286508E0,3.226293E0,1.9150397E0,1.3112534E0],"tree_param":{"num_deleted":"0","num_feature":"556","num_nodes":"15","size_leaf_vector":"1"}},{"base_weights":[5.0876524E-2,4.51291E-1,-3.5204828E-1,6.4144576E-1,-3.7384044E-2,-6.4562017E-1,2.3624608E-1,8.259215E-2,-2.0294555E-2,-7.7037144E-1,-7.3268632E-3,6.3629925E-2,-2.8003696E-2,-1.6439863E-2,-8.833259E-2],"categories":[],"categories_nodes":[],"categories_segments":[],"categories_sizes":[],"default_left":[0,0,1,1,0,1,0,0,0,0,0,0,0,0,0],"id":25,"left_children":[1,3,5,7,-1,9,11,-1,-1,13,-1,-1,-1,-1,-1],"loss_changes":[3.0499606E0,1.7187635E0,1.792124E0,1.4182613E0,0E0,4.1488075E-1,9.8214537E-1,0E0,0E0,2.1855593E-1,0E0,0E0,0E0,0E0,0E0],"parents":[2147483647,0,0,1,1,2,2,3,3,5,5,6,6,9,9],"right_children":[2,4,6,8,-1,10,12,-1,-1,14,-1,-1,-1,-1,-1],"split_conditions":[1.7390239E-1,5.7211417E-1,1.00603245E-1,1.3839094E-1,-3.7384044E-2,1.2571083E-1,9.63167E-2,8.259215E-2,-2.0294555E-2,2.3292403E-1,-7.3268632E-3,6.3629925E-2,-2.8003696E-2,-1.6439863E-2,-8.833259E-2],"split_indices":[304,207,256,475,0,27,394,0,0,196,0,0,0,0,0],"split_type":[0,0,0,0,0,0,0,0,0,0,0,0,0,0,0],"sum_hessian":[1.6919546E1,8.4260025E0,8.493544E0,7.028801E0,1.3972013E0,5.601051E0,2.8924923E0,5.7864895E0,1.2423117E0,4.314644E0,1.2864071E0,1.4987168E0,1.3937756E0,1.0636839E0,3.2509596E0],"tree_param":{"num_deleted":"0","num_feature":"556","num_nodes":"15","size_leaf_vector":"1"}},{"base_weights":[4.518655E-2,-1.6755432E-1,7.893454E-2,4.0491053E-1,-4.529738E-1,7.411766E-2,-1.45640075E-2,5.5611182E-2,-6.3875234E-1,5.4134494E-3,-8.0416054E-1,-9.362282E-2,8.237813E-4],"categories":[],"categories_nodes":[],"categories_segments":[],"categories_sizes":[],"default_left":[1,0,0,0,0,0,0,0,0,0,1,0,0],"id":26,"left_children":[1,3,-1,5,7,-1,-1,-1,9,-1,11,-1,-1],"loss_changes":[2.8560066E0,2.5043566E0,0E0,1.0806146E0,2.2206514E0,0E0,0E0,0E0,1.0600047E0,0E0,7.826667E-1,0E0,0E0],"parents":[2147483647,0,0,1,1,3,3,4,4,8,8,10,10],"right_children":[2,4,-1,6,8,-1,-1,-1,10,-1,12,-1,-1],"split_conditions":[1.5594074E-1,1.6565274E-1,7.893454E-2,1.9103815E-1,1.5000357E-1,7.411766E-2,-1.45640075E-2,5.5611182E-2,3.8252223E-1,5.4134494E-3,1.6761185E-1,-9.362282E-2,8.237813E-4],"split_indices":[27,372,0,394,124,0,0,0,358,0,450,0,0],"split_type":[0,0,0,0,0,0,0,0,0,0,0,0,0],"sum_hessian":[1.620483E1,1.32046995E1,3.0001314E0,4.253939E0,8.950761E0,2.425961E0,1.8279779E0,1.0817348E0,7.8690257E0,1.6461413E0,6.2228847E0,5.2216086E0,1.0012761E0],"tree_param":{"num_deleted":"0","num_feature":"556","num_nodes":"13","size_leaf_vector":"1"}},{"base_weights":[4.9008112E-2,7.704203E-2,-1.5829699E-1,3.6982593E-1,-4.1369906E-1,-1.4802312E-2,7.156745E-2,-5.467504E-1,2.7747972E-2,8.984591E-3,-7.215288E-1,-8.2497686E-2,-1.4171938E-2],"categories":[],"categories_nodes":[],"categories_segments":[],"categories_sizes":[],"default_left":[0,0,0,1,1,0,0,0,0,0,1,0,0],"id":27,"left_children":[1,-1,3,5,7,-1,-1,9,-1,-1,11,-1,-1],"loss_changes":[2.5756865E0,0E0,1.983957E0,9.929648E-1,1.0365362E0,0E0,0E0,1.0000033E0,0E0,0E0,2.8526807E-1,0E0,0E0],"parents":[2147483647,0,0,2,2,3,3,4,4,7,7,10,10],"right_children":[2,-1,4,6,8,-1,-1,10,-1,-1,12,-1,-1],"split_conditions":[4.4384676E-1,7.704203E-2,1.6565274E-1,1.00603245E-1,1.4736648E-1,-1.4802312E-2,7.156745E-2,1.0355834E-1,2.7747972E-2,8.984591E-3,1.3677286E-1,-8.2497686E-2,-1.4171938E-2],"split_indices":[513,0,372,256,56,0,0,141,0,0,429,0,0],"split_type":[0,0,0,0,0,0,0,0,0,0,0,0,0],"sum_hessian":[1.5407165E1,2.8327982E0,1.2574367E1,3.9527717E0,8.621595E0,1.8118447E0,2.1409268E0,7.4050817E0,1.2165132E0,1.6998073E0,5.7052746E0,4.4826508E0,1.2226238E0],"tree_param":{"num_deleted":"0","num_feature":"556","num_nodes":"13","size_leaf_vector":"1"}},{"base_weights":[5.059562E-2,-2.8533036E-1,4.725475E-1,2.079839E-1,-6.5964377E-1,7.392618E-2,-5.85818E-2,6.886934E-2,-3.3817746E-2,1.3192518E-3,-8.477724E-2,2.6266903E-2,-3.031548E-2],"categories":[],"categories_nodes":[],"categories_segments":[],"categories_sizes":[],"default_left":[1,0,0,0,0,0,0,0,0,0,0,0,0],"id":28,"left_children":[1,3,5,7,9,-1,11,-1,-1,-1,-1,-1,-1],"loss_changes":[2.3742404E0,1.8765672E0,1.0886538E0,1.4994469E0,7.194619E-1,0E0,3.4624806E-1,0E0,0E0,0E0,0E0,0E0,0E0],"parents":[2147483647,0,0,1,1,2,2,3,3,4,4,6,6],"right_children":[2,4,6,8,10,-1,12,-1,-1,-1,-1,-1,-1],"split_conditions":[9.671762E-2,4.3179584E-1,2.8605208E-1,1.5526809E-1,9.3043596E-2,7.392618E-2,1.0117119E-1,6.886934E-2,-3.3817746E-2,1.3192518E-3,-8.477724E-2,2.6266903E-2,-3.031548E-2],"split_indices":[27,256,207,394,304,0,394,0,0,0,0,0,0],"split_type":[0,0,0,0,0,0,0,0,0,0,0,0,0],"sum_hessian":[1.4798898E1,8.4196205E0,6.3792768E0,3.8241134E0,4.5955076E0,3.9858541E0,2.3934224E0,1.8951274E0,1.9289861E0,1.207346E0,3.3881614E0,1.0025567E0,1.3908657E0],"tree_param":{"num_deleted":"0","num_feature":"556","num_nodes":"13","size_leaf_vector":"1"}},{"base_weights":[4.9018633E-2,-1.4921063E-1,7.483082E-2,6.4893775E-2,-3.2181725E-1,3.6454584E-2,-4.970304E-1,-8.68573E-2,-1.2825329E-2,4.4554755E-2,-3.06991E-1,-6.0983438E-2,2.1049174E-2],"categories":[],"categories_nodes":[],"categories_segments":[],"categories_sizes":[],"default_left":[1,0,0,0,0,0,1,0,0,0,1,0,0],"id":29,"left_children":[1,3,-1,-1,5,-1,7,-1,9,-1,11,-1,-1],"loss_changes":[2.214733E0,1.952191E0,0E0,0E0,1.5128168E0,0E0,1.6519177E0,0E0,8.148192E-1,0E0,7.011584E-1,0E0,0E0],"parents":[2147483647,0,0,1,1,4,4,6,6,8,8,10,10],"right_children":[2,4,-1,-1,6,-1,8,-1,10,-1,12,-1,-1],"split_conditions":[1.5594074E-1,3.344841E-1,7.483082E-2,6.4893775E-2,1.7910011E-1,3.6454584E-2,7.1994334E-2,-8.68573E-2,1.0540503E-1,4.4554755E-2,7.75557E-2,-6.0983438E-2,2.1049174E-2],"split_indices":[27,0,0,0,406,0,337,0,141,0,27,0,0],"split_type":[0,0,0,0,0,0,0,0,0,0,0,0,0],"sum_hessian":[1.4171564E1,1.16544695E1,2.5170946E0,1.5815599E0,1.007291E1,1.8287108E0,8.244199E0,4.2156296E0,4.0285697E0,1.3735975E0,2.654972E0,1.5622454E0,1.0927267E0],"tree_param":{"num_deleted":"0","num_feature":"556","num_nodes":"13","size_leaf_vector":"1"}},{"base_weights":[5.2384105E-2,4.1611877E-1,-3.020519E-1,5.858235E-1,-2.9577408E-2,-5.593996E-1,2.213168E-1,7.7515505E-2,-2.0826604E-2,-6.7216814E-1,-5.36729E-3,5.682976E-2,-2.3328697E-2,-9.770491E-3,-8.142185E-2],"categories":[],"categories_nodes":[],"categories_segments":[],"categories_sizes":[],"default_left":[0,0,1,1,0,1,0,0,0,0,0,0,0,0,0],"id":30,"left_children":[1,3,5,7,-1,9,11,-1,-1,13,-1,-1,-1,-1,-1],"loss_changes":[1.9974377E0,1.0897359E0,1.1922432E0,1.1328452E0,0E0,2.8336668E-1,6.5806454E-1,0E0,0E0,2.871101E-1,0E0,0E0,0E0,0E0,0E0],"parents":[2147483647,0,0,1,1,2,2,3,3,5,5,6,6,9,9],"right_children":[2,4,6,8,-1,10,12,-1,-1,14,-1,-1,-1,-1,-1],"split_conditions":[1.7390239E-1,5.7211417E-1,1.00603245E-1,1.3839094E-1,-2.9577408E-2,1.2571083E-1,9.63167E-2,7.7515505E-2,-2.0826604E-2,4.512615E-1,-5.36729E-3,5.682976E-2,-2.3328697E-2,-9.770491E-3,-8.142185E-2],"split_indices":[304,207,256,475,0,27,394,0,0,191,0,0,0,0,0],"split_type":[0,0,0,0,0,0,0,0,0,0,0,0,0,0,0],"sum_hessian":[1.3518606E1,6.5858974E0,6.932709E0,5.461134E0,1.1247631E0,4.601328E0,2.3313813E0,4.428992E0,1.0321423E0,3.4932737E0,1.1080543E0,1.180363E0,1.1510183E0,1.027163E0,2.4661107E0],"tree_param":{"num_deleted":"0","num_feature":"556","num_nodes":"15","size_leaf_vector":"1"}},{"base_weights":[4.674683E-2,-1.4435434E-1,7.21933E-2,2.6514623E-1,-4.7686243E-1,6.951663E-2,-1.3321607E-1,-7.447972E-2,1.7070621E-2,3.4158647E-2,-4.6189442E-2],"categories":[],"categories_nodes":[],"categories_segments":[],"categories_sizes":[],"default_left":[1,0,0,0,1,0,0,0,0,0,0],"id":31,"left_children":[1,3,-1,5,7,-1,9,-1,-1,-1,-1],"loss_changes":[1.9109544E0,1.7259395E0,0E0,1.1044521E0,1.313975E0,0E0,7.6724553E-1,0E0,0E0,0E0,0E0],"parents":[2147483647,0,0,1,1,3,3,4,4,6,6],"right_children":[2,4,-1,6,8,-1,10,-1,-1,-1,-1],"split_conditions":[1.5594074E-1,4.3179584E-1,7.21933E-2,1.2518935E-1,8.400333E-2,6.951663E-2,1.0133572E-1,-7.447972E-2,1.7070621E-2,3.4158647E-2,-4.6189442E-2],"split_indices":[27,256,0,394,223,0,141,0,0,0,0],"split_type":[0,0,0,0,0,0,0,0,0,0,0],"sum_hessian":[1.3002605E1,1.0747025E1,2.255581E0,4.9067273E0,5.8402967E0,2.0013118E0,2.9054158E0,4.024851E0,1.8154459E0,1.1724474E0,1.7329683E0],"tree_param":{"num_deleted":"0","num_feature":"556","num_nodes":"11","size_leaf_vector":"1"}},{"base_weights":[4.9255434E-2,-2.662385E-1,4.455122E-1,1.8570317E-1,-6.1063063E-1,6.8315625E-2,-1.91277E-2,6.2907316E-2,-2.8917495E-2,1.255889E-3,-7.925143E-2,1.88634E-2,-2.1045564E-2],"categories":[],"categories_nodes":[],"categories_segments":[],"categories_sizes":[],"default_left":[1,0,0,0,0,0,0,0,0,0,0,0,0],"id":32,"left_children":[1,3,5,7,9,-1,11,-1,-1,-1,-1,-1,-1],"loss_changes":[1.8004884E0,1.376584E0,7.1283555E-1,1.0823505E0,5.584613E-1,0E0,1.6361204E-1,0E0,0E0,0E0,0E0,0E0,0E0],"parents":[2147483647,0,0,1,1,2,2,3,3,4,4,6,6],"right_children":[2,4,6,8,10,-1,12,-1,-1,-1,-1,-1,-1],"split_conditions":[9.671762E-2,4.3179584E-1,2.8605208E-1,1.5526809E-1,9.3043596E-2,6.8315625E-2,1.0795734E-1,6.2907316E-2,-2.8917495E-2,1.255889E-3,-7.925143E-2,1.88634E-2,-2.1045564E-2],"split_indices":[27,256,207,394,304,0,394,0,0,0,0,0,0],"split_type":[0,0,0,0,0,0,0,0,0,0,0,0,0],"sum_hessian":[1.2453218E1,7.1158204E0,5.3373976E0,3.2766678E0,3.8391526E0,3.2201388E0,2.117259E0,1.5266275E0,1.7500403E0,1.077671E0,2.7614815E0,1.0217873E0,1.0954717E0],"tree_param":{"num_deleted":"0","num_feature":"556","num_nodes":"13","size_leaf_vector":"1"}},{"base_weights":[4.7761407E-2,-1.3436116E-1,6.94098E-2,2.2317232E-1,-4.9786773E-1,5.2179605E-1,-1.3785183E-1,-8.035087E-2,2.4956277E-2,7.85584E-3,6.639184E-2,2.461174E-2,-4.6631284E-2],"categories":[],"categories_nodes":[],"categories_segments":[],"categories_sizes":[],"default_left":[1,0,0,0,1,0,0,0,0,0,0,0,0],"id":33,"left_children":[1,3,-1,5,7,9,11,-1,-1,-1,-1,-1,-1],"loss_changes":[1.6212862E0,1.5362072E0,0E0,7.423482E-1,1.5133288E0,1.7539948E-1,5.695705E-1,0E0,0E0,0E0,0E0,0E0,0E0],"parents":[2147483647,0,0,1,1,3,3,4,4,5,5,6,6],"right_children":[2,4,-1,6,8,10,12,-1,-1,-1,-1,-1,-1],"split_conditions":[1.5594074E-1,2.0818724E-1,6.94098E-2,2.1589291E-1,1.0264607E-1,9.5116116E-2,1.1098721E-1,-8.035087E-2,2.4956277E-2,7.85584E-3,6.639184E-2,2.461174E-2,-4.6631284E-2],"split_indices":[27,337,0,256,207,207,304,0,0,0,0,0,0],"split_type":[0,0,0,0,0,0,0,0,0,0,0,0,0],"sum_hessian":[1.1981005E1,9.965171E0,2.0158339E0,5.2184887E0,4.746682E0,2.6123462E0,2.6061428E0,3.3157644E0,1.4309179E0,1.0112638E0,1.6010822E0,1.3171253E0,1.2890174E0],"tree_param":{"num_deleted":"0","num_feature":"556","num_nodes":"13","size_leaf_vector":"1"}},{"base_weights":[4.9846962E-2,6.3216306E-2,-1.4728157E-1,5.5417832E-2,-2.95016E-1,1.8463506E-1,-4.9250573E-1,-1.7839957E-2,4.2173512E-2,-5.755984E-4,-6.6606617E-1,-7.84262E-2,-1.4305102E-2],"categories":[],"categories_nodes":[],"categories_segments":[],"categories_sizes":[],"default_left":[0,0,0,0,0,0,0,0,0,0,1,0,0],"id":34,"left_children":[1,-1,3,-1,5,7,9,-1,-1,-1,11,-1,-1],"loss_changes":[1.5275043E0,0E0,1.2149698E0,0E0,9.4668025E-1,3.646309E-1,5.598036E-1,0E0,0E0,0E0,1.9130254E-1,0E0,0E0],"parents":[2147483647,0,0,2,2,4,4,5,5,6,6,10,10],"right_children":[2,-1,4,-1,6,8,10,-1,-1,-1,12,-1,-1],"split_conditions":[4.2332196E-1,6.3216306E-2,3.344841E-1,5.5417832E-2,1.6565274E-1,1.7554098E-1,1.0602138E-1,-1.7839957E-2,4.2173512E-2,-5.755984E-4,1.275108E-1,-7.84262E-2,-1.4305102E-2],"split_indices":[512,0,0,0,372,429,207,0,0,0,27,0,0],"split_type":[0,0,0,0,0,0,0,0,0,0,0,0,0],"sum_hessian":[1.1495727E1,2.3492384E0,9.146488E0,1.1125927E0,8.0338955E0,2.3620887E0,5.671807E0,1.0310216E0,1.3310671E0,1.7623805E0,3.9094265E0,2.7813666E0,1.12806E0],"tree_param":{"num_deleted":"0","num_feature":"556","num_nodes":"13","size_leaf_vector":"1"}},{"base_weights":[5.0303765E-2,3.8720796E-1,-2.7251688E-1,6.7109965E-2,9.842753E-3,-4.946138E-1,1.8364942E-2,-5.6385435E-2,4.7112003E-2,-5.935694E-1,-7.209312E-3,-1.6228525E-2,-6.944245E-2],"categories":[],"categories_nodes":[],"categories_segments":[],"categories_sizes":[],"default_left":[0,0,1,0,1,1,0,0,0,0,0,0,0],"id":35,"left_children":[1,3,5,-1,7,9,-1,-1,-1,11,-1,-1,-1],"loss_changes":[1.4219542E0,6.72166E-1,7.765382E-1,0E0,1.2540561E0,1.5884805E-1,0E0,0E0,0E0,5.1258445E-2,0E0,0E0,0E0],"parents":[2147483647,0,0,1,1,2,2,4,4,5,5,9,9],"right_children":[2,4,6,-1,8,10,-1,-1,-1,12,-1,-1,-1],"split_conditions":[1.7390239E-1,1.3127573E-1,1.00603245E-1,6.7109965E-2,9.810275E-2,1.08868875E-1,1.8364942E-2,-5.6385435E-2,4.7112003E-2,1.7380784E-1,-7.209312E-3,-1.6228525E-2,-6.944245E-2],"split_indices":[304,223,256,0,27,27,0,0,0,93,0,0,0],"split_type":[0,0,0,0,0,0,0,0,0,0,0,0,0],"sum_hessian":[1.1104063E1,5.3359118E0,5.7681513E0,2.600885E0,2.7350268E0,3.822688E0,1.9454633E0,1.1198621E0,1.6151646E0,2.7692842E0,1.0534041E0,1.0193512E0,1.7499329E0],"tree_param":{"num_deleted":"0","num_feature":"556","num_nodes":"13","size_leaf_vector":"1"}},{"base_weights":[4.5335297E-2,-1.2966146E-1,6.609687E-2,2.1474487E-1,-4.772008E-1,4.9182162E-1,-1.2638444E-1,-7.692489E-2,2.2450848E-2,6.133309E-2,1.0778946E-2,2.341954E-2,-4.356527E-2],"categories":[],"categories_nodes":[],"categories_segments":[],"categories_sizes":[],"default_left":[1,0,0,0,1,1,0,0,0,0,0,0,0],"id":36,"left_children":[1,3,-1,5,7,9,11,-1,-1,-1,-1,-1,-1],"loss_changes":[1.3508153E0,1.2970045E0,0E0,6.0111886E-1,1.2542665E0,9.025437E-2,4.7574332E-1,0E0,0E0,0E0,0E0,0E0,0E0],"parents":[2147483647,0,0,1,1,3,3,4,4,5,5,6,6],"right_children":[2,4,-1,6,8,10,12,-1,-1,-1,-1,-1,-1],"split_conditions":[1.5594074E-1,2.0818724E-1,6.609687E-2,2.1589291E-1,1.0264607E-1,7.4946925E-2,1.1098721E-1,-7.692489E-2,2.2450848E-2,6.133309E-2,1.0778946E-2,2.341954E-2,-4.356527E-2],"split_indices":[27,337,0,256,207,459,304,0,0,0,0,0,0],"split_type":[0,0,0,0,0,0,0,0,0,0,0,0,0],"sum_hessian":[1.0742948E1,8.979786E0,1.763162E0,4.702137E0,4.277649E0,2.3509061E0,2.3512309E0,2.9525578E0,1.3250909E0,1.332284E0,1.018622E0,1.1976355E0,1.1535954E0],"tree_param":{"num_deleted":"0","num_feature":"556","num_nodes":"13","size_leaf_vector":"1"}},{"base_weights":[4.774445E-2,3.1011692E-1,-3.324375E-1,7.088264E-2,-6.376745E-3,1.065334E-2,-5.2404845E-1,-3.229843E-1,4.282415E-2,-6.893202E-2,-4.836783E-3,-4.500556E-2,-7.0728376E-3],"categories":[],"categories_nodes":[],"categories_segments":[],"categories_sizes":[],"default_left":[0,0,0,0,1,0,1,1,0,0,0,0,0],"id":37,"left_children":[1,3,5,-1,7,-1,9,11,-1,-1,-1,-1,-1],"loss_changes":[1.2337701E0,9.1611993E-1,4.857309E-1,0E0,8.288568E-1,0E0,2.5966E-1,7.950628E-2,0E0,0E0,0E0,0E0,0E0],"parents":[2147483647,0,0,1,1,2,2,4,4,6,6,7,7],"right_children":[2,4,6,-1,8,-1,10,12,-1,-1,-1,-1,-1],"split_conditions":[3.8637006E-1,1.654037E-1,9.548664E-2,7.088264E-2,8.073372E-2,1.065334E-2,9.545655E-2,9.810275E-2,4.282415E-2,-6.893202E-2,-4.836783E-3,-4.500556E-2,-7.0728376E-3],"split_indices":[394,256,337,0,223,0,27,27,0,0,0,0,0],"split_type":[0,0,0,0,0,0,0,0,0,0,0,0,0],"sum_hessian":[1.03351755E1,6.2240834E0,4.111092E0,2.2057374E0,4.018346E0,1.384131E0,2.7269614E0,2.473398E0,1.544948E0,1.6904894E0,1.0364718E0,1.1233824E0,1.3500154E0],"tree_param":{"num_deleted":"0","num_feature":"556","num_nodes":"13","size_leaf_vector":"1"}},{"base_weights":[4.4251155E-2,-1.2477636E-1,6.372704E-2,3.1875718E-1,-3.5994995E-1,5.9807617E-2,-9.339227E-3,1.6769199E-2,-5.42096E-1,5.529283E-3,-7.1862064E-2],"categories":[],"categories_nodes":[],"categories_segments":[],"categories_sizes":[],"default_left":[1,0,0,0,0,0,0,0,0,0,0],"id":38,"left_children":[1,3,-1,5,7,-1,-1,-1,9,-1,-1],"loss_changes":[1.1838303E0,1.0962344E0,0E0,4.922591E-1,7.27029E-1,0E0,0E0,0E0,5.8351505E-1,0E0,0E0],"parents":[2147483647,0,0,1,1,3,3,4,4,8,8],"right_children":[2,4,-1,6,8,-1,-1,-1,10,-1,-1],"split_conditions":[1.5594074E-1,1.6565274E-1,6.372704E-2,1.9103815E-1,1.0355834E-1,5.9807617E-2,-9.339227E-3,1.6769199E-2,1.5738325E-1,5.529283E-3,-7.1862064E-2],"split_indices":[27,372,0,394,141,0,0,0,429,0,0],"split_type":[0,0,0,0,0,0,0,0,0,0,0],"sum_hessian":[1.0017075E1,8.409669E0,1.6074054E0,2.7908182E0,5.61885E0,1.3945793E0,1.396239E0,1.4622755E0,4.1565747E0,1.1047351E0,3.0518396E0],"tree_param":{"num_deleted":"0","num_feature":"556","num_nodes":"11","size_leaf_vector":"1"}},{"base_weights":[4.709441E-2,3.6670706E-1,-2.527247E-1,5.862033E-2,-4.3013575E-3,-4.5375785E-1,1.6039668E-2,-1.8088575E-2,-6.2131565E-2],"categories":[],"categories_nodes":[],"categories_segments":[],"categories_sizes":[],"default_left":[0,0,1,0,0,1,0,0,0],"id":39,"left_children":[1,3,5,-1,-1,7,-1,-1,-1],"loss_changes":[1.1161578E0,5.2682596E-1,5.7963943E-1,0E0,0E0,8.725411E-2,0E0,0E0,0E0],"parents":[2147483647,0,0,1,1,2,2,5,5],"right_children":[2,4,6,-1,-1,8,-1,-1,-1],"split_conditions":[1.7390239E-1,3.184017E-1,1.00603245E-1,5.862033E-2,-4.3013575E-3,8.9140855E-2,1.6039668E-2,-1.8088575E-2,-6.2131565E-2],"split_indices":[304,223,256,0,0,337,0,0,0],"split_type":[0,0,0,0,0,0,0,0,0],"sum_hessian":[9.680632E0,4.577664E0,5.1029677E0,2.70031E0,1.8773537E0,3.3664303E0,1.7365372E0,2.0718737E0,1.2945566E0],"tree_param":{"num_deleted":"0","num_feature":"556","num_nodes":"9","size_leaf_vector":"1"}},{"base_weights":[4.2354554E-2,5.766787E-2,-1.3725103E-1,2.76128E-1,-3.4971285E-1,-9.081318E-3,5.4957177E-2,6.7445748E-3,-5.669818E-1,-6.700744E-2,-1.2872978E-2],"categories":[],"categories_nodes":[],"categories_segments":[],"categories_sizes":[],"default_left":[0,0,0,1,0,0,0,0,1,0,0],"id":40,"left_children":[1,-1,3,5,7,-1,-1,-1,9,-1,-1],"loss_changes":[1.0855002E0,0E0,8.5680026E-1,4.0082508E-1,5.964353E-1,0E0,0E0,0E0,1.0150492E-1,0E0,0E0],"parents":[2147483647,0,0,2,2,3,3,4,4,8,8],"right_children":[2,-1,4,6,8,-1,-1,-1,10,-1,-1],"split_conditions":[4.2332196E-1,5.766787E-2,1.6565274E-1,1.00603245E-1,1.24650955E-1,-9.081318E-3,5.4957177E-2,6.7445748E-3,1.275108E-1,-6.700744E-2,-1.2872978E-2],"split_indices":[512,0,372,256,207,0,0,0,27,0,0],"split_type":[0,0,0,0,0,0,0,0,0,0,0],"sum_hessian":[9.486357E0,1.8303337E0,7.6560235E0,2.4973543E0,5.158669E0,1.3515567E0,1.1457977E0,2.0028162E0,3.1558528E0,2.1266243E0,1.0292283E0],"tree_param":{"num_deleted":"0","num_feature":"556","num_nodes":"11","size_leaf_vector":"1"}},{"base_weights":[4.20837E-2,-1.2116688E-1,6.104905E-2,1.9860688E-1,-4.474121E-1,4.026649E-1,-1.6400808E-2,-7.1778335E-2,1.911759E-2,6.175464E-2,-1.2646236E-3],"categories":[],"categories_nodes":[],"categories_segments":[],"categories_sizes":[],"default_left":[1,0,0,1,1,0,0,0,0,0,0],"id":41,"left_children":[1,3,-1,5,7,9,-1,-1,-1,-1,-1],"loss_changes":[1.0226622E0,1.0045153E0,0E0,4.452638E-1,9.4041145E-1,3.263107E-1,0E0,0E0,0E0,0E0,0E0],"parents":[2147483647,0,0,1,1,3,3,4,4,5,5],"right_children":[2,4,-1,6,8,10,-1,-1,-1,-1,-1],"split_conditions":[1.5594074E-1,2.0818724E-1,6.104905E-2,8.471612E-2,1.0264607E-1,2.1353972E-1,-1.6400808E-2,-7.1778335E-2,1.911759E-2,6.175464E-2,-1.2646236E-3],"split_indices":[27,337,0,429,207,256,0,0,0,0,0],"split_type":[0,0,0,0,0,0,0,0,0,0,0],"sum_hessian":[9.223764E0,7.776987E0,1.4467767E0,4.125023E0,3.6519642E0,2.5689332E0,1.5560898E0,2.4785547E0,1.1734095E0,1.3720748E0,1.1968585E0],"tree_param":{"num_deleted":"0","num_feature":"556","num_nodes":"11","size_leaf_vector":"1"}},{"base_weights":[4.431157E-2,-2.2086342E-1,3.791359E-1,-5.5312224E-2,9.686044E-2,6.19483E-2,9.947148E-4,3.9215058E-2,-2.7703464E-2],"categories":[],"categories_nodes":[],"categories_segments":[],"categories_sizes":[],"default_left":[1,1,0,0,0,0,0,0,0],"id":42,"left_children":[1,3,5,-1,7,-1,-1,-1,-1],"loss_changes":[9.643147E-1,7.0454854E-1,4.1544533E-1,0E0,5.506185E-1,0E0,0E0,0E0,0E0],"parents":[2147483647,0,0,1,1,2,2,4,4],"right_children":[2,4,6,-1,8,-1,-1,-1,-1],"split_conditions":[9.671762E-2,7.1994334E-2,3.0148977E-1,-5.5312224E-2,1.9524692E-1,6.19483E-2,9.947148E-4,3.9215058E-2,-2.7703464E-2],"split_indices":[27,337,459,0,141,0,0,0,0],"split_type":[0,0,0,0,0,0,0,0,0],"sum_hessian":[8.91786E0,5.1664686E0,3.7513916E0,2.1633067E0,3.0031617E0,1.8615433E0,1.8898484E0,1.650682E0,1.3524798E0],"tree_param":{"num_deleted":"0","num_feature":"556","num_nodes":"9","size_leaf_vector":"1"}},{"base_weights":[4.288373E-2,3.4868878E-1,-2.3836087E-1,5.887837E-2,4.793206E-3,9.157922E-2,-4.6957053E-2,-3.4294195E-2,3.3973426E-2,3.1429593E-2,-1.779848E-2],"categories":[],"categories_nodes":[],"categories_segments":[],"categories_sizes":[],"default_left":[0,0,0,0,1,1,0,0,0,0,0],"id":43,"left_children":[1,3,5,-1,7,9,-1,-1,-1,-1,-1],"loss_changes":[9.1767055E-1,4.1453892E-1,4.7391474E-1,0E0,4.7598115E-1,2.4590826E-1,0E0,0E0,0E0,0E0,0E0],"parents":[2147483647,0,0,1,1,2,2,4,4,5,5],"right_children":[2,4,6,-1,8,10,-1,-1,-1,-1,-1],"split_conditions":[1.7390239E-1,1.3127573E-1,1.5962505E-1,5.887837E-2,9.63167E-2,1.0670227E-1,-4.6957053E-2,-3.4294195E-2,3.3973426E-2,3.1429593E-2,-1.779848E-2],"split_indices":[304,223,256,0,394,429,0,0,0,0,0],"split_type":[0,0,0,0,0,0,0,0,0,0,0],"sum_hessian":[8.703468E0,4.0547833E0,4.648685E0,1.9684124E0,2.0863712E0,2.1642196E0,2.4844654E0,1.0119152E0,1.074456E0,1.0942209E0,1.0699987E0],"tree_param":{"num_deleted":"0","num_feature":"556","num_nodes":"11","size_leaf_vector":"1"}},{"base_weights":[4.2267554E-2,-1.15311384E-1,5.8383036E-2,2.394199E-1,-3.633854E-1,5.5075027E-2,-8.210995E-3,9.938795E-3,-5.483765E-2],"categories":[],"categories_nodes":[],"categories_segments":[],"categories_sizes":[],"default_left":[1,0,0,0,0,0,0,0,0],"id":44,"left_children":[1,3,-1,5,7,-1,-1,-1,-1],"loss_changes":[8.777074E-1,8.077922E-1,0E0,4.4298935E-1,5.011424E-1,0E0,0E0,0E0,0E0],"parents":[2147483647,0,0,1,1,3,3,4,4],"right_children":[2,4,-1,6,8,-1,-1,-1,-1],"split_conditions":[1.5594074E-1,1.16222374E-1,5.8383036E-2,4.3179584E-1,1.13962576E-1,5.5075027E-2,-8.210995E-3,9.938795E-3,-5.483765E-2],"split_indices":[27,394,0,256,372,0,0,0,0],"split_type":[0,0,0,0,0,0,0,0,0],"sum_hessian":[8.496082E0,7.190836E0,1.3052464E0,2.9736197E0,4.2172165E0,1.1485746E0,1.8250451E0,1.3365207E0,2.8806958E0],"tree_param":{"num_deleted":"0","num_feature":"556","num_nodes":"9","size_leaf_vector":"1"}},{"base_weights":[4.558988E-2,-2.0992714E-1,3.668486E-1,-5.2384842E-2,9.146566E-2,5.8938127E-2,2.261869E-3,3.7182372E-2,-2.5821118E-2],"categories":[],"categories_nodes":[],"categories_segments":[],"categories_sizes":[],"default_left":[1,1,0,0,0,0,0,0,0],"id":45,"left_children":[1,3,5,-1,7,-1,-1,-1,-1],"loss_changes":[8.3827245E-1,5.968119E-1,3.292622E-1,0E0,4.6963373E-1,0E0,0E0,0E0,0E0],"parents":[2147483647,0,0,1,1,2,2,4,4],"right_children":[2,4,6,-1,8,-1,-1,-1,-1],"split_conditions":[9.671762E-2,7.1994334E-2,3.0148977E-1,-5.2384842E-2,1.9524692E-1,5.8938127E-2,2.261869E-3,3.7182372E-2,-2.5821118E-2],"split_indices":[27,337,459,0,141,0,0,0,0],"split_type":[0,0,0,0,0,0,0,0,0],"sum_hessian":[8.273824E0,4.8014665E0,3.4723568E0,1.9903198E0,2.8111467E0,1.6764297E0,1.795927E0,1.5250679E0,1.2860788E0],"tree_param":{"num_deleted":"0","num_feature":"556","num_nodes":"9","size_leaf_vector":"1"}},{"base_weights":[4.4212323E-2,3.4195063E-1,-2.2622737E-1,5.3034246E-2,-3.2596265E-3,-4.0737018E-1,1.4501137E-2,-1.3137656E-2,-5.741356E-2],"categories":[],"categories_nodes":[],"categories_segments":[],"categories_sizes":[],"default_left":[0,0,1,0,0,1,0,0,0],"id":46,"left_children":[1,3,5,-1,-1,7,-1,-1,-1],"loss_changes":[8.09256E-1,3.506629E-1,4.198546E-1,0E0,0E0,1.0260922E-1,0E0,0E0,0E0],"parents":[2147483647,0,0,1,1,2,2,5,5],"right_children":[2,4,6,-1,-1,8,-1,-1,-1],"split_conditions":[1.7390239E-1,3.184017E-1,1.00603245E-1,5.3034246E-2,-3.2596265E-3,8.9140855E-2,1.4501137E-2,-1.3137656E-2,-5.741356E-2],"split_indices":[304,223,256,0,0,337,0,0,0],"split_type":[0,0,0,0,0,0,0,0,0],"sum_hessian":[8.089606E0,3.7246072E0,4.3649993E0,2.201384E0,1.523223E0,2.8681722E0,1.496827E0,1.7536718E0,1.1145005E0],"tree_param":{"num_deleted":"0","num_feature":"556","num_nodes":"9","size_leaf_vector":"1"}},{"base_weights":[3.9809186E-2,-1.0998382E-1,5.561989E-2,1.7031665E-1,-4.1924757E-1,4.30022E-2,-1.07539855E-1,-6.9992185E-2,1.7622981E-2,2.0655649E-2,-3.7489265E-2],"categories":[],"categories_nodes":[],"categories_segments":[],"categories_sizes":[],"default_left":[1,0,0,0,1,0,0,0,0,0,0],"id":47,"left_children":[1,3,-1,5,7,-1,9,-1,-1,-1,-1],"loss_changes":[7.530642E-1,7.448235E-1,0E0,3.9161614E-1,7.889251E-1,0E0,3.3878326E-1,0E0,0E0,0E0,0E0],"parents":[2147483647,0,0,1,1,3,3,4,4,6,6],"right_children":[2,4,-1,6,8,-1,10,-1,-1,-1,-1],"split_conditions":[1.5594074E-1,5.7929146E-1,5.561989E-2,1.2134259E-1,1.0264607E-1,4.30022E-2,1.24217845E-1,-6.9992185E-2,1.7622981E-2,2.0655649E-2,-3.7489265E-2],"split_indices":[27,337,0,304,207,0,372,0,0,0,0],"split_type":[0,0,0,0,0,0,0,0,0,0,0],"sum_hessian":[7.9447627E0,6.7684126E0,1.1763499E0,3.7861385E0,2.982274E0,1.6739242E0,2.1122143E0,1.9076974E0,1.0745766E0,1.0757651E0,1.0364492E0],"tree_param":{"num_deleted":"0","num_feature":"556","num_nodes":"11","size_leaf_vector":"1"}},{"base_weights":[4.007914E-2,5.1311444E-2,-1.1873877E-1,2.4678074E-1,-3.0925876E-1,4.090065E-2,-4.2093354E-3,6.9778906E-3,-5.108769E-1,-6.1267283E-2,-1.5116765E-2],"categories":[],"categories_nodes":[],"categories_segments":[],"categories_sizes":[],"default_left":[0,0,0,1,0,0,0,0,1,0,0],"id":48,"left_children":[1,-1,3,5,7,-1,-1,-1,9,-1,-1],"loss_changes":[7.1361417E-1,0E0,5.8581144E-1,1.6075686E-1,4.3710423E-1,0E0,0E0,0E0,3.734994E-2,0E0,0E0],"parents":[2147483647,0,0,2,2,3,3,4,4,8,8],"right_children":[2,-1,4,6,8,-1,-1,-1,10,-1,-1],"split_conditions":[4.2332196E-1,5.1311444E-2,1.6565274E-1,7.186428E-2,1.24650955E-1,4.090065E-2,-4.2093354E-3,6.9778906E-3,1.2155582E-1,-6.1267283E-2,-1.5116765E-2],"split_indices":[512,0,372,429,207,0,0,0,27,0,0],"split_type":[0,0,0,0,0,0,0,0,0,0,0],"sum_hessian":[7.6878495E0,1.3716344E0,6.316215E0,2.0629911E0,4.253224E0,1.0547827E0,1.0082085E0,1.7038772E0,2.549347E0,1.4389005E0,1.1104465E0],"tree_param":{"num_deleted":"0","num_feature":"556","num_nodes":"11","size_leaf_vector":"1"}},{"base_weights":[3.8911022E-2,-1.9861713E-1,3.3964247E-1,1.3016781E-1,-4.596757E-1,5.523468E-2,1.7849067E-3,3.0168751E-2,-1.1447179E-2,-1.30056245E-2,-5.6008596E-2],"categories":[],"categories_nodes":[],"categories_segments":[],"categories_sizes":[],"default_left":[1,0,0,0,0,0,0,0,0,0,0],"id":49,"left_children":[1,3,5,7,9,-1,-1,-1,-1,-1,-1],"loss_changes":[6.761166E-1,5.22612E-1,2.7276686E-1,1.673652E-1,3.3930242E-2,0E0,0E0,0E0,0E0,0E0,0E0],"parents":[2147483647,0,0,1,1,2,2,3,3,4,4],"right_children":[2,4,6,8,10,-1,-1,-1,-1,-1,-1],"split_conditions":[9.671762E-2,4.3179584E-1,3.0148977E-1,1.2319714E-1,9.8038636E-2,5.523468E-2,1.7849067E-3,3.0168751E-2,-1.1447179E-2,-1.30056245E-2,-5.6008596E-2],"split_indices":[27,256,459,141,207,0,0,0,0,0,0],"split_type":[0,0,0,0,0,0,0,0,0,0,0],"sum_hessian":[7.5207777E0,4.3916516E0,3.1291263E0,2.1656065E0,2.226045E0,1.4525387E0,1.6765876E0,1.1359719E0,1.0296347E0,1.0557042E0,1.1703408E0],"tree_param":{"num_deleted":"0","num_feature":"556","num_nodes":"11","size_leaf_vector":"1"}},{"base_weights":[3.6494333E-2,3.1759712E-1,-2.142746E-1,4.954522E-2,-4.0927166E-3,1.5334305E-2,-3.797936E-1,-5.081779E-3,-4.9017206E-2],"categories":[],"categories_nodes":[],"categories_segments":[],"categories_sizes":[],"default_left":[0,0,0,0,0,0,0,0,0],"id":50,"left_children":[1,3,5,-1,-1,-1,7,-1,-1],"loss_changes":[6.5827745E-1,2.9769358E-1,3.638383E-1,0E0,0E0,0E0,1.112867E-1,0E0,0E0],"parents":[2147483647,0,0,1,1,2,2,6,6],"right_children":[2,4,6,-1,-1,-1,8,-1,-1],"split_conditions":[1.7390239E-1,3.184017E-1,1.0117119E-1,4.954522E-2,-4.0927166E-3,1.5334305E-2,1.11077145E-1,-5.081779E-3,-4.9017206E-2],"split_indices":[304,223,394,0,0,0,141,0,0],"split_type":[0,0,0,0,0,0,0,0,0],"sum_hessian":[7.372946E0,3.3505776E0,4.0223684E0,1.9842963E0,1.3662814E0,1.2716333E0,2.750735E0,1.0579574E0,1.6927775E0],"tree_param":{"num_deleted":"0","num_feature":"556","num_nodes":"9","size_leaf_vector":"1"}},{"base_weights":[3.4194805E-2,-1.0998456E-1,5.255441E-2,-3.7116724E-1,2.0063463E-1,-6.328603E-2,6.79638E-3,4.795609E-2,-9.825282E-3],"categories":[],"categories_nodes":[],"categories_segments":[],"categories_sizes":[],"default_left":[1,1,0,1,0,0,0,0,0],"id":51,"left_children":[1,3,-1,5,7,-1,-1,-1,-1],"loss_changes":[6.426103E-1,6.593407E-1,0E0,5.333801E-1,3.757599E-1,0E0,0E0,0E0,0E0],"parents":[2147483647,0,0,1,1,3,3,4,4],"right_children":[2,4,-1,6,8,-1,-1,-1,-1],"split_conditions":[1.5594074E-1,7.0513785E-2,5.255441E-2,1.0264607E-1,1.4347655E-1,-6.328603E-2,6.79638E-3,4.795609E-2,-9.825282E-3],"split_indices":[27,337,0,207,304,0,0,0,0],"split_type":[0,0,0,0,0,0,0,0,0],"sum_hessian":[7.25506E0,6.209214E0,1.0458462E0,3.2671335E0,2.9420807E0,1.7707303E0,1.4964031E0,1.2091744E0,1.7329063E0],"tree_param":{"num_deleted":"0","num_feature":"556","num_nodes":"9","size_leaf_vector":"1"}},{"base_weights":[3.5677187E-2,-1.9332696E-1,3.3028805E-1,1.2945688E-1,-4.5311134E-2,5.2690666E-2,2.543772E-3,2.6679417E-2,-6.95613E-3],"categories":[],"categories_nodes":[],"categories_segments":[],"categories_sizes":[],"default_left":[1,0,0,1,0,0,0,0,0],"id":52,"left_children":[1,3,5,7,-1,-1,-1,-1,-1],"loss_changes":[6.0807693E-1,4.921328E-1,2.2018692E-1,1.02824E-1,0E0,0E0,0E0,0E0,0E0],"parents":[2147483647,0,0,1,1,2,2,3,3],"right_children":[2,4,6,8,-1,-1,-1,-1,-1],"split_conditions":[9.671762E-2,4.3179584E-1,3.0148977E-1,8.253111E-2,-4.5311134E-2,5.2690666E-2,2.543772E-3,2.6679417E-2,-6.95613E-3],"split_indices":[27,256,459,207,0,0,0,0,0],"split_type":[0,0,0,0,0,0,0,0,0],"sum_hessian":[7.066499E0,4.1693826E0,2.8971167E0,2.0829628E0,2.0864196E0,1.318388E0,1.5787286E0,1.0309672E0,1.0519956E0],"tree_param":{"num_deleted":"0","num_feature":"556","num_nodes":"9","size_leaf_vector":"1"}},{"base_weights":[3.6416665E-2,-2.3639026E-1,2.670084E-1,8.896514E-3,-4.02508E-2,5.522578E-2,2.0574408E-2,3.14799E-2,-3.386505E-2],"categories":[],"categories_nodes":[],"categories_segments":[],"categories_sizes":[],"default_left":[1,0,0,0,0,0,0,0,0],"id":53,"left_children":[1,3,5,-1,-1,-1,7,-1,-1],"loss_changes":[5.6262296E-1,2.6105958E-1,3.241362E-1,0E0,0E0,0E0,4.8702362E-1,0E0,0E0],"parents":[2147483647,0,0,1,1,2,2,6,6],"right_children":[2,4,6,-1,-1,-1,8,-1,-1],"split_conditions":[5.642397E-2,3.318698E-1,1.654037E-1,8.896514E-3,-4.02508E-2,5.522578E-2,1.7390239E-1,3.14799E-2,-3.386505E-2],"split_indices":[394,93,256,0,0,0,304,0,0],"split_type":[0,0,0,0,0,0,0,0,0],"sum_hessian":[6.9403663E0,3.1676536E0,3.772713E0,1.227648E0,1.9400055E0,1.1734443E0,2.5992687E0,1.4968991E0,1.1023695E0],"tree_param":{"num_deleted":"0","num_feature":"556","num_nodes":"9","size_leaf_vector":"1"}},{"base_weights":[3.6244802E-2,-1.8206908E-1,3.1577113E-1,-4.708766E-2,9.860202E-2,5.0645705E-2,2.5147246E-3,3.433018E-2,-2.1530444E-2],"categories":[],"categories_nodes":[],"categories_segments":[],"categories_sizes":[],"default_left":[1,1,0,0,0,0,0,0,0],"id":54,"left_children":[1,3,5,-1,7,-1,-1,-1,-1],"loss_changes":[5.334958E-1,4.5285788E-1,1.970917E-1,0E0,3.3274576E-1,0E0,0E0,0E0,0E0],"parents":[2147483647,0,0,1,1,2,2,4,4],"right_children":[2,4,6,-1,8,-1,-1,-1,-1],"split_conditions":[9.671762E-2,7.1994334E-2,3.0148977E-1,-4.708766E-2,1.9524692E-1,5.0645705E-2,2.5147246E-3,3.433018E-2,-2.1530444E-2],"split_indices":[27,337,459,0,141,0,0,0,0],"split_type":[0,0,0,0,0,0,0,0,0],"sum_hessian":[6.8002076E0,4.013927E0,2.7862804E0,1.6442897E0,2.3696373E0,1.2339796E0,1.5523009E0,1.2789851E0,1.090652E0],"tree_param":{"num_deleted":"0","num_feature":"556","num_nodes":"9","size_leaf_vector":"1"}},{"base_weights":[3.569183E-2,3.0668178E-1,-1.8013231E-1,5.2664597E-2,2.6387477E-3,-3.920902E-1,1.9196225E-2,-1.9190097E-3,-5.5700876E-2],"categories":[],"categories_nodes":[],"categories_segments":[],"categories_sizes":[],"default_left":[0,0,1,0,0,0,0,0,0],"id":55,"left_children":[1,3,5,-1,-1,7,-1,-1,-1],"loss_changes":[5.039978E-1,2.1864587E-1,4.6181107E-1,0E0,0E0,2.0154977E-1,0E0,0E0,0E0],"parents":[2147483647,0,0,1,1,2,2,5,5],"right_children":[2,4,6,-1,-1,8,-1,-1,-1],"split_conditions":[1.16222374E-1,4.3179584E-1,1.0003234E-1,5.2664597E-2,2.6387477E-3,8.143059E-2,1.9196225E-2,-1.9190097E-3,-5.5700876E-2],"split_indices":[394,256,27,0,0,27,0,0,0],"split_type":[0,0,0,0,0,0,0,0,0],"sum_hessian":[6.6728306E0,2.7716954E0,3.9011352E0,1.0605292E0,1.711166E0,2.4511423E0,1.4499929E0,1.0939513E0,1.3571908E0],"tree_param":{"num_deleted":"0","num_feature":"556","num_nodes":"9","size_leaf_vector":"1"}},{"base_weights":[3.485696E-2,2.9480582E-1,-1.9427066E-1,4.5837354E-2,-4.4801733E-3,8.307065E-3,-3.8767215E-2],"categories":[],"categories_nodes":[],"categories_segments":[],"categories_sizes":[],"default_left":[0,0,0,0,0,0,0],"id":56,"left_children":[1,3,5,-1,-1,-1,-1],"loss_changes":[5.068149E-1,2.3901895E-1,2.797109E-1,0E0,0E0,0E0,0E0],"parents":[2147483647,0,0,1,1,2,2],"right_children":[2,4,6,-1,-1,-1,-1],"split_conditions":[1.7390239E-1,3.184017E-1,1.5962505E-1,4.5837354E-2,-4.4801733E-3,8.307065E-3,-3.8767215E-2],"split_indices":[304,223,256,0,0,0,0],"split_type":[0,0,0,0,0,0,0],"sum_hessian":[6.5475445E0,2.9331715E0,3.6143732E0,1.7436494E0,1.189522E0,1.7193166E0,1.8950566E0],"tree_param":{"num_deleted":"0","num_feature":"556","num_nodes":"7","size_leaf_vector":"1"}},{"base_weights":[3.328602E-2,4.4839166E-2,-1.02986276E-1,2.1990491E-2,-2.7565923E-1,6.18674E-3,-4.521695E-1,-5.4831624E-2,-1.2770939E-2],"categories":[],"categories_nodes":[],"categories_segments":[],"categories_sizes":[],"default_left":[0,0,0,0,0,0,1,0,0],"id":57,"left_children":[1,-1,3,-1,5,-1,7,-1,-1],"loss_changes":[4.6808907E-1,0E0,4.1903162E-1,0E0,3.0395004E-1,0E0,2.8615475E-2,0E0,0E0],"parents":[2147483647,0,0,2,2,4,4,6,6],"right_children":[2,-1,4,-1,6,-1,8,-1,-1],"split_conditions":[4.2332196E-1,4.4839166E-2,1.6565274E-1,2.1990491E-2,1.24650955E-1,6.18674E-3,1.2155582E-1,-5.4831624E-2,-1.2770939E-2],"split_indices":[512,0,372,0,207,0,27,0,0],"split_type":[0,0,0,0,0,0,0,0,0],"sum_hessian":[6.458553E0,1.030151E0,5.428402E0,1.7961475E0,3.6322546E0,1.47027E0,2.1619844E0,1.1355535E0,1.026431E0],"tree_param":{"num_deleted":"0","num_feature":"556","num_nodes":"9","size_leaf_vector":"1"}},{"base_weights":[3.1074151E-2,-1.7693299E-1,2.952022E-1,-4.48463E-2,9.0290144E-2,4.781915E-2,2.2607467E-3,3.2869242E-2,-2.0929871E-2],"categories":[],"categories_nodes":[],"categories_segments":[],"categories_sizes":[],"default_left":[1,1,0,0,0,0,0,0,0],"id":58,"left_children":[1,3,5,-1,7,-1,-1,-1,-1],"loss_changes":[4.5584434E-1,3.840629E-1,1.6932872E-1,0E0,2.9869455E-1,0E0,0E0,0E0,0E0],"parents":[2147483647,0,0,1,1,2,2,4,4],"right_children":[2,4,6,-1,8,-1,-1,-1,-1],"split_conditions":[9.671762E-2,7.1994334E-2,3.0148977E-1,-4.48463E-2,1.9524692E-1,4.781915E-2,2.2607467E-3,3.2869242E-2,-2.0929871E-2],"split_indices":[27,337,459,0,141,0,0,0,0],"split_type":[0,0,0,0,0,0,0,0,0],"sum_hessian":[6.3463693E0,3.7350514E0,2.6113179E0,1.5161904E0,2.218861E0,1.1111778E0,1.5001401E0,1.1815112E0,1.0373499E0],"tree_param":{"num_deleted":"0","num_feature":"556","num_nodes":"9","size_leaf_vector":"1"}},{"base_weights":[3.0822787E-2,4.0277224E-2,-1.1852692E-1,-3.585284E-1,1.5791142E-1,-5.6619674E-2,-1.8565105E-3,3.500397E-2,-1.1622539E-2],"categories":[],"categories_nodes":[],"categories_segments":[],"categories_sizes":[],"default_left":[0,0,1,1,0,0,0,0,0],"id":59,"left_children":[1,-1,3,5,7,-1,-1,-1,-1],"loss_changes":[4.497192E-1,0E0,4.5042735E-1,2.3539013E-1,2.2253601E-1,0E0,0E0,0E0,0E0],"parents":[2147483647,0,0,2,2,3,3,4,4],"right_children":[2,-1,4,6,8,-1,-1,-1,-1],"split_conditions":[1.7910011E-1,4.0277224E-2,6.66763E-2,1.0003234E-1,1.9524692E-1,-5.6619674E-2,-1.8565105E-3,3.500397E-2,-1.1622539E-2],"split_indices":[406,0,337,27,141,0,0,0,0],"split_type":[0,0,0,0,0,0,0,0,0],"sum_hessian":[6.2362905E0,1.3005308E0,4.9357595E0,2.4830446E0,2.452715E0,1.1283325E0,1.3547122E0,1.2792649E0,1.17345E0],"tree_param":{"num_deleted":"0","num_feature":"556","num_nodes":"9","size_leaf_vector":"1"}},{"base_weights":[2.8853256E-2,2.805208E-1,-1.8641111E-1,4.3631468E-2,-4.448429E-3,1.4904085E-2,-3.360166E-1,-8.211878E-3,-4.213993E-2],"categories":[],"categories_nodes":[],"categories_segments":[],"categories_sizes":[],"default_left":[0,0,0,0,0,0,0,0,0],"id":60,"left_children":[1,3,5,-1,-1,-1,7,-1,-1],"loss_changes":[4.380742E-1,2.0585051E-1,2.7284715E-1,0E0,0E0,0E0,3.8604766E-2,0E0,0E0],"parents":[2147483647,0,0,1,1,2,2,6,6],"right_children":[2,4,6,-1,-1,-1,8,-1,-1],"split_conditions":[1.7390239E-1,3.184017E-1,1.0117119E-1,4.3631468E-2,-4.448429E-3,1.4904085E-2,1.3548109E-1,-8.211878E-3,-4.213993E-2],"split_indices":[304,223,394,0,0,0,141,0,0],"split_type":[0,0,0,0,0,0,0,0,0],"sum_hessian":[6.121027E0,2.6821525E0,3.4388745E0,1.5815418E0,1.1006106E0,1.0618106E0,2.377064E0,1.0919034E0,1.2851605E0],"tree_param":{"num_deleted":"0","num_feature":"556","num_nodes":"9","size_leaf_vector":"1"}},{"base_weights":[2.685183E-2,-1.7612895E-1,2.8340092E-1,1.1496E-2,-4.0632606E-2,4.563297E-2,2.5437262E-3],"categories":[],"categories_nodes":[],"categories_segments":[],"categories_sizes":[],"default_left":[1,0,0,0,0,0,0],"id":61,"left_children":[1,3,5,-1,-1,-1,-1],"loss_changes":[4.165934E-1,3.5145226E-1,1.4423811E-1,0E0,0E0,0E0,0E0],"parents":[2147483647,0,0,1,1,2,2],"right_children":[2,4,6,-1,-1,-1,-1],"split_conditions":[9.671762E-2,4.3179584E-1,3.0148977E-1,1.1496E-2,-4.0632606E-2,4.563297E-2,2.5437262E-3],"split_indices":[27,256,459,0,0,0,0],"split_type":[0,0,0,0,0,0,0],"sum_hessian":[6.0414133E0,3.5478415E0,2.4935718E0,1.7877706E0,1.7600708E0,1.0324731E0,1.4610986E0],"tree_param":{"num_deleted":"0","num_feature":"556","num_nodes":"7","size_leaf_vector":"1"}},{"base_weights":[2.720691E-2,2.7019978E-1,-1.7954394E-1,-4.3174849E-4,4.6771716E-2,1.4428462E-2,-3.230774E-1,-7.886873E-3,-4.0416285E-2],"categories":[],"categories_nodes":[],"categories_segments":[],"categories_sizes":[],"default_left":[0,1,0,0,0,0,0,0,0],"id":62,"left_children":[1,3,5,-1,-1,-1,7,-1,-1],"loss_changes":[3.9810726E-1,1.971181E-1,2.4929114E-1,0E0,0E0,0E0,3.406477E-2,0E0,0E0],"parents":[2147483647,0,0,1,1,2,2,6,6],"right_children":[2,4,6,-1,-1,-1,8,-1,-1],"split_conditions":[1.7390239E-1,7.0513785E-2,1.0117119E-1,-4.3174849E-4,4.6771716E-2,1.4428462E-2,1.3548109E-1,-7.886873E-3,-4.0416285E-2],"split_indices":[304,337,394,0,0,0,141,0,0],"split_type":[0,0,0,0,0,0,0,0,0],"sum_hessian":[5.95863E0,2.5981529E0,3.3604774E0,1.4964583E0,1.1016945E0,1.0304428E0,2.3300345E0,1.0725249E0,1.2575097E0],"tree_param":{"num_deleted":"0","num_feature":"556","num_nodes":"9","size_leaf_vector":"1"}},{"base_weights":[2.6616216E-2,-1.7138167E-1,2.7681977E-1,1.0993945E-2,-3.944767E-2,4.1887082E-2,8.709089E-4],"categories":[],"categories_nodes":[],"categories_segments":[],"categories_sizes":[],"default_left":[1,0,0,0,0,0,0],"id":63,"left_children":[1,3,5,-1,-1,-1,-1],"loss_changes":[3.8861775E-1,3.2342005E-1,1.2678477E-1,0E0,0E0,0E0,0E0],"parents":[2147483647,0,0,1,1,2,2],"right_children":[2,4,6,-1,-1,-1,-1],"split_conditions":[9.671762E-2,4.3179584E-1,1.7390239E-1,1.0993945E-2,-3.944767E-2,4.1887082E-2,8.709089E-4],"split_indices":[27,256,304,0,0,0,0],"split_type":[0,0,0,0,0,0,0],"sum_hessian":[5.8869095E0,3.4621656E0,2.4247441E0,1.7555891E0,1.7065765E0,1.2174213E0,1.2073228E0],"tree_param":{"num_deleted":"0","num_feature":"556","num_nodes":"7","size_leaf_vector":"1"}},{"base_weights":[2.633624E-2,-1.6408247E-1,2.6903248E-1,1.0031028E-2,-2.9836828E-1,4.1242E-2,1.3399497E-3,-3.7805658E-2,-7.092193E-3],"categories":[],"categories_nodes":[],"categories_segments":[],"categories_sizes":[],"default_left":[1,0,0,0,1,0,0,0,0],"id":64,"left_children":[1,3,5,-1,7,-1,-1,-1,-1],"loss_changes":[3.5885313E-1,1.8746363E-1,1.18101925E-1,0E0,3.1080753E-2,0E0,0E0,0E0,0E0],"parents":[2147483647,0,0,1,1,2,2,4,4],"right_children":[2,4,6,-1,8,-1,-1,-1,-1],"split_conditions":[7.995643E-2,3.318698E-1,1.7390239E-1,1.0031028E-2,8.706435E-2,4.1242E-2,1.3399497E-3,-3.7805658E-2,-7.092193E-3],"split_indices":[394,93,304,0,27,0,0,0,0],"split_type":[0,0,0,0,0,0,0,0,0],"sum_hessian":[5.8098474E0,3.4370596E0,2.3727875E0,1.2429159E0,2.1941438E0,1.1271996E0,1.245588E0,1.1344851E0,1.0596588E0],"tree_param":{"num_deleted":"0","num_feature":"556","num_nodes":"9","size_leaf_vector":"1"}},{"base_weights":[2.5096523E-2,2.6536542E-1,-1.6435045E-1,6.3080504E-3,3.3771697E-2,-3.5182065E-1,1.6593598E-2,-1.6416333E-3,-5.0219562E-2],"categories":[],"categories_nodes":[],"categories_segments":[],"categories_sizes":[],"default_left":[0,1,1,0,0,0,0,0,0],"id":65,"left_children":[1,3,5,-1,-1,7,-1,-1,-1],"loss_changes":[3.5080156E-1,2.7839169E-2,3.3026326E-1,0E0,0E0,1.4919633E-1,0E0,0E0,0E0],"parents":[2147483647,0,0,1,1,2,2,5,5],"right_children":[2,4,6,-1,-1,8,-1,-1,-1],"split_conditions":[1.16222374E-1,6.4696856E-2,1.0003234E-1,6.3080504E-3,3.3771697E-2,8.143059E-2,1.6593598E-2,-1.6416333E-3,-5.0219562E-2],"split_indices":[394,337,27,0,0,27,0,0,0],"split_type":[0,0,0,0,0,0,0,0,0],"sum_hessian":[5.748696E0,2.3577313E0,3.3909643E0,1.1142641E0,1.2434671E0,2.1215668E0,1.2693975E0,1.0000875E0,1.1214794E0],"tree_param":{"num_deleted":"0","num_feature":"556","num_nodes":"9","size_leaf_vector":"1"}},{"base_weights":[2.34671E-2,3.558787E-2,-1.0771878E-1,-3.358961E-1,1.5716866E-1,-5.0472356E-2,-1.8787591E-3,3.4046683E-2,-1.0918072E-2],"categories":[],"categories_nodes":[],"categories_segments":[],"categories_sizes":[],"default_left":[0,0,1,1,0,0,0,0,0],"id":66,"left_children":[1,-1,3,5,7,-1,-1,-1,-1],"loss_changes":[3.2921115E-1,0E0,3.882672E-1,1.6722006E-1,1.9583356E-1,0E0,0E0,0E0,0E0],"parents":[2147483647,0,0,2,2,3,3,4,4],"right_children":[2,-1,4,6,8,-1,-1,-1,-1],"split_conditions":[1.7910011E-1,3.558787E-2,6.66763E-2,1.1583617E-1,1.9524692E-1,-5.0472356E-2,-1.8787591E-3,3.4046683E-2,-1.0918072E-2],"split_indices":[406,0,337,27,141,0,0,0,0],"split_type":[0,0,0,0,0,0,0,0,0],"sum_hessian":[5.6702967E0,1.1198726E0,4.550424E0,2.3005934E0,2.2498307E0,1.1152142E0,1.185379E0,1.1678559E0,1.0819747E0],"tree_param":{"num_deleted":"0","num_feature":"556","num_nodes":"9","size_leaf_vector":"1"}},{"base_weights":[2.2337856E-2,2.5007555E-1,-1.6599497E-1,-3.0037027E-3,4.333606E-2,-3.0346438E-2,1.2288741E-2],"categories":[],"categories_nodes":[],"categories_segments":[],"categories_sizes":[],"default_left":[0,1,1,0,0,0,0],"id":67,"left_children":[1,3,5,-1,-1,-1,-1],"loss_changes":[3.2366103E-1,1.8637495E-1,2.0415348E-1,0E0,0E0,0E0,0E0],"parents":[2147483647,0,0,1,1,2,2],"right_children":[2,4,6,-1,-1,-1,-1],"split_conditions":[1.7390239E-1,8.073372E-2,1.00603245E-1,-3.0037027E-3,4.333606E-2,-3.0346438E-2,1.2288741E-2],"split_indices":[304,223,256,0,0,0,0],"split_type":[0,0,0,0,0,0,0],"sum_hessian":[5.578377E0,2.3766375E0,3.2017395E0,1.2707232E0,1.1059142E0,2.1351948E0,1.0665448E0],"tree_param":{"num_deleted":"0","num_feature":"556","num_nodes":"7","size_leaf_vector":"1"}},{"base_weights":[2.3790818E-2,-1.5872225E-1,2.506565E-1,-4.0365916E-2,8.3254045E-3,3.7448626E-2,4.234985E-4],"categories":[],"categories_nodes":[],"categories_segments":[],"categories_sizes":[],"default_left":[1,1,0,0,0,0,0],"id":68,"left_children":[1,3,5,-1,-1,-1,-1],"loss_changes":[3.095243E-1,2.8386545E-1,9.886949E-2,0E0,0E0,0E0,0E0],"parents":[2147483647,0,0,1,1,2,2],"right_children":[2,4,6,-1,-1,-1,-1],"split_conditions":[9.671762E-2,7.1994334E-2,4.8791802E-1,-4.0365916E-2,8.3254045E-3,3.7448626E-2,4.234985E-4],"split_indices":[27,337,429,0,0,0,0],"split_type":[0,0,0,0,0,0,0],"sum_hessian":[5.5145116E0,3.222436E0,2.2920756E0,1.2693645E0,1.9530714E0,1.1796095E0,1.1124661E0],"tree_param":{"num_deleted":"0","num_feature":"556","num_nodes":"7","size_leaf_vector":"1"}},{"base_weights":[2.2496324E-2,2.4888924E-1,-1.5543428E-1,4.8672855E-3,3.2018337E-2,-3.2925505E-2,1.4752829E-2],"categories":[],"categories_nodes":[],"categories_segments":[],"categories_sizes":[],"default_left":[0,0,1,0,0,0,0],"id":69,"left_children":[1,3,5,-1,-1,-1,-1],"loss_changes":[2.9872808E-1,3.045459E-2,2.7134186E-1,0E0,0E0,0E0,0E0],"parents":[2147483647,0,0,1,1,2,2],"right_children":[2,4,6,-1,-1,-1,-1],"split_conditions":[1.16222374E-1,8.081107E-2,1.0003234E-1,4.8672855E-3,3.2018337E-2,-3.2925505E-2,1.4752829E-2],"split_indices":[394,394,27,0,0,0,0],"split_type":[0,0,0,0,0,0,0],"sum_hessian":[5.455506E0,2.2253041E0,3.2302017E0,1.026178E0,1.1991261E0,1.9974225E0,1.2327794E0],"tree_param":{"num_deleted":"0","num_feature":"556","num_nodes":"7","size_leaf_vector":"1"}},{"base_weights":[2.3325346E-2,2.4362075E-1,-1.568905E-1,4.1820377E-2,-3.2749705E-3,9.18068E-3,-3.282067E-2],"categories":[],"categories_nodes":[],"categories_segments":[],"categories_sizes":[],"default_left":[0,0,0,0,0,0,0],"id":70,"left_children":[1,3,5,-1,-1,-1,-1],"loss_changes":[2.924088E-1,1.716005E-1,2.0609051E-1,0E0,0E0,0E0,0E0],"parents":[2147483647,0,0,1,1,2,2],"right_children":[2,4,6,-1,-1,-1,-1],"split_conditions":[1.7390239E-1,1.3127573E-1,1.5962505E-1,4.1820377E-2,-3.2749705E-3,9.18068E-3,-3.282067E-2],"split_indices":[304,223,256,0,0,0,0],"split_type":[0,0,0,0,0,0,0],"sum_hessian":[5.4025793E0,2.272659E0,3.1299205E0,1.0782987E0,1.1943603E0,1.4659423E0,1.6639782E0],"tree_param":{"num_deleted":"0","num_feature":"556","num_nodes":"7","size_leaf_vector":"1"}},{"base_weights":[2.3592144E-2,3.3049498E-2,-9.740791E-2,-3.1350884E-1,1.532317E-1,-4.765478E-2,-1.7476656E-3,3.3014316E-2,-1.0514215E-2],"categories":[],"categories_nodes":[],"categories_segments":[],"categories_sizes":[],"default_left":[0,0,1,1,0,0,0,0,0],"id":71,"left_children":[1,-1,3,5,7,-1,-1,-1,-1],"loss_changes":[2.6778844E-1,0E0,3.3633107E-1,1.4546964E-1,1.7805965E-1,0E0,0E0,0E0,0E0],"parents":[2147483647,0,0,2,2,3,3,4,4],"right_children":[2,-1,4,6,8,-1,-1,-1,-1],"split_conditions":[1.7910011E-1,3.3049498E-2,6.66763E-2,1.1583617E-1,1.9524692E-1,-4.765478E-2,-1.7476656E-3,3.3014316E-2,-1.0514215E-2],"split_indices":[406,0,337,27,141,0,0,0,0],"split_type":[0,0,0,0,0,0,0,0,0],"sum_hessian":[5.3442574E0,1.0216348E0,4.3226223E0,2.1865492E0,2.1360734E0,1.0167778E0,1.1697714E0,1.1030378E0,1.0330355E0],"tree_param":{"num_deleted":"0","num_feature":"556","num_nodes":"9","size_leaf_vector":"1"}},{"base_weights":[2.2445034E-2,-1.4938895E-1,2.3352541E-1,1.1561344E-2,-3.620486E-2,3.5590157E-2,-3.3079297E-4],"categories":[],"categories_nodes":[],"categories_segments":[],"categories_sizes":[],"default_left":[1,0,0,0,0,0,0],"id":72,"left_children":[1,3,5,-1,-1,-1,-1],"loss_changes":[2.6210982E-1,2.708424E-1,9.396316E-2,0E0,0E0,0E0,0E0],"parents":[2147483647,0,0,1,1,2,2],"right_children":[2,4,6,-1,-1,-1,-1],"split_conditions":[9.671762E-2,4.3179584E-1,4.8791802E-1,1.1561344E-2,-3.620486E-2,3.5590157E-2,-3.3079297E-4],"split_indices":[27,256,429,0,0,0,0],"split_type":[0,0,0,0,0,0,0],"sum_hessian":[5.264648E0,3.0632315E0,2.2014167E0,1.5669487E0,1.4962827E0,1.119961E0,1.0814556E0],"tree_param":{"num_deleted":"0","num_feature":"556","num_nodes":"7","size_leaf_vector":"1"}},{"base_weights":[2.208097E-2,2.3669907E-1,-1.5230286E-1,4.0494364E-2,-3.086088E-3,-3.0776918E-2,1.0964288E-2],"categories":[],"categories_nodes":[],"categories_segments":[],"categories_sizes":[],"default_left":[0,0,0,0,0,0,0],"id":73,"left_children":[1,3,5,-1,-1,-1,-1],"loss_changes":[2.684063E-1,1.5540637E-1,1.9801454E-1,0E0,0E0,0E0,0E0],"parents":[2147483647,0,0,1,1,2,2],"right_children":[2,4,6,-1,-1,-1,-1],"split_conditions":[1.7390239E-1,1.3127573E-1,1.5378076E-1,4.0494364E-2,-3.086088E-3,-3.0776918E-2,1.0964288E-2],"split_indices":[304,223,27,0,0,0,0],"split_type":[0,0,0,0,0,0,0],"sum_hessian":[5.2084327E0,2.174671E0,3.0337617E0,1.0198867E0,1.1547842E0,1.7940488E0,1.239713E0],"tree_param":{"num_deleted":"0","num_feature":"556","num_nodes":"7","size_leaf_vector":"1"}},{"base_weights":[2.2955468E-2,-1.436391E-1,2.2712779E-1,1.1444691E-2,-3.523575E-2,3.5137933E-2,4.2829546E-4],"categories":[],"categories_nodes":[],"categories_segments":[],"categories_sizes":[],"default_left":[1,0,0,0,0,0,0],"id":74,"left_children":[1,3,5,-1,-1,-1,-1],"loss_changes":[2.4203931E-1,2.5595424E-1,8.581938E-2,0E0,0E0,0E0,0E0],"parents":[2147483647,0,0,1,1,2,2],"right_children":[2,4,6,-1,-1,-1,-1],"split_conditions":[9.671762E-2,4.3179584E-1,1.7390239E-1,1.1444691E-2,-3.523575E-2,3.5137933E-2,4.2829546E-4],"split_indices":[27,256,304,0,0,0,0],"split_type":[0,0,0,0,0,0,0],"sum_hessian":[5.1567254E0,3.0029483E0,2.153777E0,1.5446343E0,1.4583141E0,1.012467E0,1.14131E0],"tree_param":{"num_deleted":"0","num_feature":"556","num_nodes":"7","size_leaf_vector":"1"}},{"base_weights":[2.2767747E-2,2.3042518E-1,-1.3974492E-1,5.5928123E-3,2.8897626E-2,-2.987364E-2,1.354723E-2],"categories":[],"categories_nodes":[],"categories_segments":[],"categories_sizes":[],"default_left":[0,0,1,0,0,0,0],"id":75,"left_children":[1,3,5,-1,-1,-1,-1],"loss_changes":[2.3813614E-1,1.5067071E-2,2.1750179E-1,0E0,0E0,0E0,0E0],"parents":[2147483647,0,0,1,1,2,2],"right_children":[2,4,6,-1,-1,-1,-1],"split_conditions":[1.16222374E-1,8.17016E-2,1.0003234E-1,5.5928123E-3,2.8897626E-2,-2.987364E-2,1.354723E-2],"split_indices":[394,394,27,0,0,0,0],"split_type":[0,0,0,0,0,0,0],"sum_hessian":[5.102339E0,2.056574E0,3.0457647E0,1.0079199E0,1.0486542E0,1.8763508E0,1.169414E0],"tree_param":{"num_deleted":"0","num_feature":"556","num_nodes":"7","size_leaf_vector":"1"}},{"base_weights":[2.362061E-2,2.5944108E-2,-1.19201474E-1,1.2666689E-2,-2.6507914E-1,-3.9293613E-2,2.6232665E-4],"categories":[],"categories_nodes":[],"categories_segments":[],"categories_sizes":[],"default_left":[0,0,0,0,1,0,0],"id":76,"left_children":[1,-1,3,-1,5,-1,-1],"loss_changes":[2.350365E-1,0E0,1.9352531E-1,0E0,1.07897475E-1,0E0,0E0],"parents":[2147483647,0,0,2,2,4,4],"right_children":[2,-1,4,-1,6,-1,-1],"split_conditions":[1.6565274E-1,2.5944108E-2,1.2198337E-1,1.2666689E-2,1.08868875E-1,-3.9293613E-2,2.6232665E-4],"split_indices":[372,0,304,0,27,0,0],"split_type":[0,0,0,0,0,0,0],"sum_hessian":[5.0602283E0,1.6007006E0,3.4595277E0,1.3372915E0,2.1222363E0,1.119665E0,1.0025713E0],"tree_param":{"num_deleted":"0","num_feature":"556","num_nodes":"7","size_leaf_vector":"1"}},{"base_weights":[2.1314515E-2,2.1929252E-1,-1.388313E-1,-2.4706773E-3,3.4920923E-2,-2.8997947E-2,1.15679605E-2],"categories":[],"categories_nodes":[],"categories_segments":[],"categories_sizes":[],"default_left":[0,1,0,0,0,0,0],"id":77,"left_children":[1,3,5,-1,-1,-1,-1],"loss_changes":[2.2098589E-1,1.06107295E-1,1.8490607E-1,0E0,0E0,0E0,0E0],"parents":[2147483647,0,0,1,1,2,2],"right_children":[2,4,6,-1,-1,-1,-1],"split_conditions":[1.7390239E-1,6.4696856E-2,1.5378076E-1,-2.4706773E-3,3.4920923E-2,-2.8997947E-2,1.15679605E-2],"split_indices":[304,337,27,0,0,0,0],"split_type":[0,0,0,0,0,0,0],"sum_hessian":[5.00975E0,2.0751028E0,2.9346468E0,1.0023652E0,1.0727376E0,1.7537661E0,1.1808808E0],"tree_param":{"num_deleted":"0","num_feature":"556","num_nodes":"7","size_leaf_vector":"1"}},{"base_weights":[2.1864645E-2,2.5092188E-2,-1.1720764E-1,1.5512384E-2,-2.4422815E-1,3.7439645E-3,-3.9838012E-2],"categories":[],"categories_nodes":[],"categories_segments":[],"categories_sizes":[],"default_left":[0,0,0,0,0,0,0],"id":78,"left_children":[1,-1,3,-1,5,-1,-1],"loss_changes":[2.1952514E-1,0E0,1.8991764E-1,0E0,1.6191535E-1,0E0,0E0],"parents":[2147483647,0,0,2,2,4,4],"right_children":[2,-1,4,-1,6,-1,-1],"split_conditions":[1.6565274E-1,2.5092188E-2,1.2940006E-1,1.5512384E-2,1.621735E-1,3.7439645E-3,-3.9838012E-2],"split_indices":[372,0,459,0,304,0,0],"split_type":[0,0,0,0,0,0,0],"sum_hessian":[4.9680467E0,1.5730009E0,3.395046E0,1.0094783E0,2.3855677E0,1.1115886E0,1.2739791E0],"tree_param":{"num_deleted":"0","num_feature":"556","num_nodes":"7","size_leaf_vector":"1"}},{"base_weights":[2.0551328E-2,-1.3723892E-1,2.1427354E-1,-3.684016E-2,8.591469E-3,3.3834856E-2,-1.6058E-3],"categories":[],"categories_nodes":[],"categories_segments":[],"categories_sizes":[],"default_left":[1,1,0,0,0,0,0],"id":79,"left_children":[1,3,5,-1,-1,-1,-1],"loss_changes":[2.1029052E-1,2.3132484E-1,9.2504114E-2,0E0,0E0,0E0,0E0],"parents":[2147483647,0,0,1,1,2,2],"right_children":[2,4,6,-1,-1,-1,-1],"split_conditions":[9.671762E-2,7.1994334E-2,4.8791802E-1,-3.684016E-2,8.591469E-3,3.3834856E-2,-1.6058E-3],"split_indices":[27,337,429,0,0,0,0],"split_type":[0,0,0,0,0,0,0],"sum_hessian":[4.9175262E0,2.870787E0,2.0467393E0,1.0903825E0,1.7804044E0,1.0254089E0,1.0213306E0],"tree_param":{"num_deleted":"0","num_feature":"556","num_nodes":"7","size_leaf_vector":"1"}},{"base_weights":[1.9305404E-2,2.162161E-2,-1.3348113E-1,-2.8588807E-2,1.3091271E-2],"categories":[],"categories_nodes":[],"categories_segments":[],"categories_sizes":[],"default_left":[0,0,1,0,0],"id":80,"left_children":[1,-1,3,-1,-1],"loss_changes":[2.055143E-1,0E0,1.9557059E-1,0E0,0E0],"parents":[2147483647,0,0,2,2],"right_children":[2,-1,4,-1,-1],"split_conditions":[1.16222374E-1,2.162161E-2,1.0003234E-1,-2.8588807E-2,1.3091271E-2],"split_indices":[394,0,27,0,0],"split_type":[0,0,0,0,0],"sum_hessian":[4.871756E0,1.9471393E0,2.9246168E0,1.8036349E0,1.1209818E0],"tree_param":{"num_deleted":"0","num_feature":"556","num_nodes":"5","size_leaf_vector":"1"}},{"base_weights":[1.8516507E-2,2.4165224E-2,-1.1669021E-1,1.1257982E-2,-2.545805E-2],"categories":[],"categories_nodes":[],"categories_segments":[],"categories_sizes":[],"default_left":[0,0,0,0,0],"id":81,"left_children":[1,-1,3,-1,-1],"loss_changes":[2.0423868E-1,0E0,1.6484721E-1,0E0,0E0],"parents":[2147483647,0,0,2,2],"right_children":[2,-1,4,-1,-1],"split_conditions":[1.6565274E-1,2.4165224E-2,1.2715647E-1,1.1257982E-2,-2.545805E-2],"split_indices":[372,0,207,0,0],"split_type":[0,0,0,0,0],"sum_hessian":[4.835049E0,1.52727E0,3.3077796E0,1.3112013E0,1.9965781E0],"tree_param":{"num_deleted":"0","num_feature":"556","num_nodes":"5","size_leaf_vector":"1"}},{"base_weights":[1.8478505E-2,-1.3254693E-1,2.0370556E-2,1.065024E-2,-3.254949E-2],"categories":[],"categories_nodes":[],"categories_segments":[],"categories_sizes":[],"default_left":[1,0,0,0,0],"id":82,"left_children":[1,3,-1,-1,-1],"loss_changes":[1.8930276E-1,2.100217E-1,0E0,0E0,0E0],"parents":[2147483647,0,0,1,1],"right_children":[2,4,-1,-1,-1],"split_conditions":[9.671762E-2,4.3179584E-1,2.0370556E-2,1.065024E-2,-3.254949E-2],"split_indices":[27,256,0,0,0],"split_type":[0,0,0,0,0],"sum_hessian":[4.801896E0,2.8018265E0,2.0000696E0,1.4515189E0,1.3503076E0],"tree_param":{"num_deleted":"0","num_feature":"556","num_nodes":"5","size_leaf_vector":"1"}},{"base_weights":[1.644166E-2,2.0602992E-2,-1.3469583E-1,-3.3526804E-2,6.6503356E-3],"categories":[],"categories_nodes":[],"categories_segments":[],"categories_sizes":[],"default_left":[0,0,0,0,0],"id":83,"left_children":[1,-1,3,-1,-1],"loss_changes":[1.9288759E-1,0E0,1.7610657E-1,0E0,0E0],"parents":[2147483647,0,0,2,2],"right_children":[2,-1,4,-1,-1],"split_conditions":[1.7390239E-1,2.0602992E-2,1.3699168E-1,-3.3526804E-2,6.6503356E-3],"split_indices":[304,0,207,0,0],"split_type":[0,0,0,0,0],"sum_hessian":[4.763133E0,1.9517032E0,2.81143E0,1.0742142E0,1.7372158E0],"tree_param":{"num_deleted":"0","num_feature":"556","num_nodes":"5","size_leaf_vector":"1"}},{"base_weights":[1.3754347E-2,-1.4334343E-1,1.9539951E-1,-3.4653246E-2,1.5739163E-2,3.4583867E-2,-5.2795717E-3],"categories":[],"categories_nodes":[],"categories_segments":[],"categories_sizes":[],"default_left":[1,0,0,0,0,0,0],"id":84,"left_children":[1,3,5,-1,-1,-1,-1],"loss_changes":[1.9163685E-1,2.7767825E-1,1.3335158E-1,0E0,0E0,0E0,0E0],"parents":[2147483647,0,0,1,1,2,2],"right_children":[2,4,6,-1,-1,-1,-1],"split_conditions":[7.0513785E-2,1.5594074E-1,1.9524692E-1,-3.4653246E-2,1.5739163E-2,3.4583867E-2,-5.2795717E-3],"split_indices":[337,27,141,0,0,0,0],"split_type":[0,0,0,0,0,0,0],"sum_hessian":[4.7340665E0,2.6516328E0,2.0824335E0,1.4915769E0,1.160056E0,1.0516067E0,1.0308268E0],"tree_param":{"num_deleted":"0","num_feature":"556","num_nodes":"7","size_leaf_vector":"1"}},{"base_weights":[1.4315362E-2,-1.3084596E-1,2.0373827E-2,-2.662398E-2,1.1620832E-2],"categories":[],"categories_nodes":[],"categories_segments":[],"categories_sizes":[],"default_left":[1,1,0,0,0],"id":85,"left_children":[1,3,-1,-1,-1],"loss_changes":[1.83032E-1,1.5900347E-1,0E0,0E0,0E0],"parents":[2147483647,0,0,1,1],"right_children":[2,4,-1,-1,-1],"split_conditions":[7.995643E-2,1.0517113E-1,2.0373827E-2,-2.662398E-2,1.1620832E-2],"split_indices":[394,93,0,0,0],"split_type":[0,0,0,0,0],"sum_hessian":[4.6869607E0,2.8285692E0,1.8583914E0,1.7770375E0,1.0515316E0],"tree_param":{"num_deleted":"0","num_feature":"556","num_nodes":"5","size_leaf_vector":"1"}},{"base_weights":[1.389313E-2,-1.3346395E-1,1.9499088E-2,-3.503086E-2,7.922894E-3],"categories":[],"categories_nodes":[],"categories_segments":[],"categories_sizes":[],"default_left":[1,1,0,0,0],"id":86,"left_children":[1,3,-1,-1,-1],"loss_changes":[1.7694902E-1,1.9895378E-1,0E0,0E0,0E0],"parents":[2147483647,0,0,1,1],"right_children":[2,4,-1,-1,-1],"split_conditions":[9.671762E-2,7.1994334E-2,1.9499088E-2,-3.503086E-2,7.922894E-3],"split_indices":[27,337,0,0,0],"split_type":[0,0,0,0,0],"sum_hessian":[4.655571E0,2.7119322E0,1.943639E0,1.0224788E0,1.6894534E0],"tree_param":{"num_deleted":"0","num_feature":"556","num_nodes":"5","size_leaf_vector":"1"}},{"base_weights":[1.1184488E-2,1.9694299E-2,-1.312872E-1,-2.7117018E-2,1.1441339E-2],"categories":[],"categories_nodes":[],"categories_segments":[],"categories_sizes":[],"default_left":[0,0,1,0,0],"id":87,"left_children":[1,-1,3,-1,-1],"loss_changes":[1.7462105E-1,0E0,1.6098395E-1,0E0,0E0],"parents":[2147483647,0,0,2,2],"right_children":[2,-1,4,-1,-1],"split_conditions":[1.16222374E-1,1.9694299E-2,1.0003234E-1,-2.7117018E-2,1.1441339E-2],"split_indices":[394,0,27,0,0],"split_type":[0,0,0,0,0],"sum_hessian":[4.6211257E0,1.8398927E0,2.7812333E0,1.7061958E0,1.0750374E0],"tree_param":{"num_deleted":"0","num_feature":"556","num_nodes":"5","size_leaf_vector":"1"}},{"base_weights":[1.0822616E-2,2.252298E-2,-1.1630061E-1,1.1501579E-2,-2.5472924E-2],"categories":[],"categories_nodes":[],"categories_segments":[],"categories_sizes":[],"default_left":[0,0,0,0,0],"id":88,"left_children":[1,-1,3,-1,-1],"loss_changes":[1.7856786E-1,0E0,1.6279429E-1,0E0,0E0],"parents":[2147483647,0,0,2,2],"right_children":[2,-1,4,-1,-1],"split_conditions":[1.6565274E-1,2.252298E-2,1.2715647E-1,1.1501579E-2,-2.5472924E-2],"split_indices":[372,0,207,0,0],"split_type":[0,0,0,0,0],"sum_hessian":[4.590429E0,1.4213773E0,3.1690516E0,1.249781E0,1.9192708E0],"tree_param":{"num_deleted":"0","num_feature":"556","num_nodes":"5","size_leaf_vector":"1"}},{"base_weights":[1.1326367E-2,1.9391587E-2,-1.3234094E-1,-3.2171167E-2,6.2049367E-3],"categories":[],"categories_nodes":[],"categories_segments":[],"categories_sizes":[],"default_left":[0,0,0,0,0],"id":89,"left_children":[1,-1,3,-1,-1],"loss_changes":[1.7151558E-1,0E0,1.5638877E-1,0E0,0E0],"parents":[2147483647,0,0,2,2],"right_children":[2,-1,4,-1,-1],"split_conditions":[1.7390239E-1,1.9391587E-2,1.3699168E-1,-3.2171167E-2,6.2049367E-3],"split_indices":[304,0,207,0,0],"split_type":[0,0,0,0,0],"sum_hessian":[4.560072E0,1.8540138E0,2.706058E0,1.038954E0,1.667104E0],"tree_param":{"num_deleted":"0","num_feature":"556","num_nodes":"5","size_leaf_vector":"1"}},{"base_weights":[9.030557E-3,-1.3683945E-1,1.8002251E-2,-3.3364173E-2,1.5313488E-2],"categories":[],"categories_nodes":[],"categories_segments":[],"categories_sizes":[],"default_left":[1,0,0,0,0],"id":90,"left_children":[1,3,-1,-1,-1],"loss_changes":[1.626709E-1,2.5394547E-1,0E0,0E0,0E0],"parents":[2147483647,0,0,1,1],"right_children":[2,4,-1,-1,-1],"split_conditions":[7.0513785E-2,1.5594074E-1,1.8002251E-2,-3.3364173E-2,1.5313488E-2],"split_indices":[337,27,0,0,0],"split_type":[0,0,0,0,0],"sum_hessian":[4.5341754E0,2.554614E0,1.9795613E0,1.4320842E0,1.1225297E0],"tree_param":{"num_deleted":"0","num_feature":"556","num_nodes":"5","size_leaf_vector":"1"}},{"base_weights":[8.129345E-3,-1.3639343E-1,1.8738838E-2,9.789994E-3,-3.1794004E-2],"categories":[],"categories_nodes":[],"categories_segments":[],"categories_sizes":[],"default_left":[1,0,0,0,0],"id":91,"left_children":[1,3,-1,-1,-1],"loss_changes":[1.6808806E-1,1.8530148E-1,0E0,0E0,0E0],"parents":[2147483647,0,0,1,1],"right_children":[2,4,-1,-1,-1],"split_conditions":[9.671762E-2,4.3179584E-1,1.8738838E-2,9.789994E-3,-3.1794004E-2],"split_indices":[27,256,0,0,0],"split_type":[0,0,0,0,0],"sum_hessian":[4.50158E0,2.624652E0,1.8769284E0,1.3470166E0,1.2776355E0],"tree_param":{"num_deleted":"0","num_feature":"556","num_nodes":"5","size_leaf_vector":"1"}},{"base_weights":[6.7257043E-3,1.8213509E-2,-1.3063766E-1,8.924384E-3,-2.8387154E-2],"categories":[],"categories_nodes":[],"categories_segments":[],"categories_sizes":[],"default_left":[0,0,0,0,0],"id":92,"left_children":[1,-1,3,-1,-1],"loss_changes":[1.5553273E-1,0E0,1.4826795E-1,0E0,0E0],"parents":[2147483647,0,0,2,2],"right_children":[2,-1,4,-1,-1],"split_conditions":[1.7390239E-1,1.8213509E-2,1.5962505E-1,8.924384E-3,-2.8387154E-2],"split_indices":[304,0,256,0,0],"split_type":[0,0,0,0,0],"sum_hessian":[4.4675245E0,1.8189005E0,2.6486242E0,1.2592591E0,1.389365E0],"tree_param":{"num_deleted":"0","num_feature":"556","num_nodes":"5","size_leaf_vector":"1"}},{"base_weights":[5.8305534E-3,-1.3287032E-1,1.781531E-2,8.707865E-3,-3.033174E-2],"categories":[],"categories_nodes":[],"categories_segments":[],"categories_sizes":[],"default_left":[1,0,0,0,0],"id":93,"left_children":[1,3,-1,-1,-1],"loss_changes":[1.5371768E-1,1.6090181E-1,0E0,0E0,0E0],"parents":[2147483647,0,0,1,1],"right_children":[2,4,-1,-1,-1],"split_conditions":[9.671762E-2,4.3179584E-1,1.781531E-2,8.707865E-3,-3.033174E-2],"split_indices":[27,256,0,0,0],"split_type":[0,0,0,0,0],"sum_hessian":[4.4409804E0,2.587372E0,1.8536084E0,1.343196E0,1.2441759E0],"tree_param":{"num_deleted":"0","num_feature":"556","num_nodes":"5","size_leaf_vector":"1"}},{"base_weights":[4.539478E-3,-1.4031664E-1,1.7612632E-2,-3.2942113E-2,1.4441299E-2],"categories":[],"categories_nodes":[],"categories_segments":[],"categories_sizes":[],"default_left":[1,0,0,0,0],"id":94,"left_children":[1,3,-1,-1,-1],"loss_changes":[1.5919095E-1,2.3550275E-1,0E0,0E0,0E0],"parents":[2147483647,0,0,1,1],"right_children":[2,4,-1,-1,-1],"split_conditions":[7.0513785E-2,1.5594074E-1,1.7612632E-2,-3.2942113E-2,1.4441299E-2],"split_indices":[337,27,0,0,0],"split_type":[0,0,0,0,0],"sum_hessian":[4.410393E0,2.4902928E0,1.9201002E0,1.4021125E0,1.0881804E0],"tree_param":{"num_deleted":"0","num_feature":"556","num_nodes":"5","size_leaf_vector":"1"}},{"base_weights":[3.9061208E-3,-1.2846352E-1,1.8253947E-2,1.0838578E-2,-2.59435E-2],"categories":[],"categories_nodes":[],"categories_segments":[],"categories_sizes":[],"default_left":[1,0,0,0,0],"id":95,"left_children":[1,3,-1,-1,-1],"loss_changes":[1.5065144E-1,1.421755E-1,0E0,0E0,0E0],"parents":[2147483647,0,0,1,1],"right_children":[2,4,-1,-1,-1],"split_conditions":[7.995643E-2,3.318698E-1,1.8253947E-2,1.0838578E-2,-2.59435E-2],"split_indices":[394,93,0,0,0],"split_type":[0,0,0,0,0],"sum_hessian":[4.379504E0,2.676808E0,1.7026963E0,1.0145464E0,1.6622617E0],"tree_param":{"num_deleted":"0","num_feature":"556","num_nodes":"5","size_leaf_vector":"1"}},{"base_weights":[4.105367E-3,-1.3357829E-1,1.7551625E-2,7.928514E-3,-2.9500568E-2],"categories":[],"categories_nodes":[],"categories_segments":[],